{"learner":{"attributes":{"best_iteration":"99","best_ntree_limit":"100","scikit_learn":"{\"use_label_encoder\": null, \"n_estimators\": 100, \"objective\": \"binary:logistic\", \"max_depth\": null, \"max_leaves\": null, \"max_bin\": null, \"grow_policy\": null, \"learning_rate\": null, \"verbosity\": null, \"booster\": null, \"tree_method\": null, \"gamma\": null, \"min_child_weight\": null, \"max_delta_step\": null, \"subsample\": null, \"sampling_method\": null, \"colsample_bytree\": null, \"colsample_bylevel\": null, \"colsample_bynode\": null, \"reg_alpha\": null, \"reg_lambda\": null, \"scale_pos_weight\": null, \"base_score\": null, \"missing\": NaN, \"num_parallel_tree\": null, \"random_state\": null, \"n_jobs\": null, \"monotone_constraints\": null, \"interaction_constraints\": null, \"importance_type\": null, \"gpu_id\": null, \"validate_parameters\": null, \"predictor\": null, \"enable_categorical\": false, \"feature_types\": null, \"max_cat_to_onehot\": null, \"max_cat_threshold\": null, \"eval_metric\": null, \"early_stopping_rounds\": null, \"callbacks\": null, \"classes_\": [0, 1], \"n_classes_\": 2, \"_estimator_type\": \"classifier\"}"},"feature_names":["movie_id","runtime","adult","user_id","action","adventure","animation","children","comedy","crime","documentary","drama","fantasy","fi","film","horror","imax","listed","musical","mystery","noir","romance","sci","thriller","war","western"],"feature_types":["int","int","i","int","float","float","float","float","float","float","float","float","float","float","float","float","float","float","float","float","float","float","float","float","float","float"],"gradient_booster":{"model":{"gbtree_model_param":{"num_parallel_tree":"1","num_trees":"100","size_leaf_vector":"0"},"tree_info":[0,0,0,0,0,0,0,0,0,0,0,0,0,0,0,0,0,0,0,0,0,0,0,0,0,0,0,0,0,0,0,0,0,0,0,0,0,0,0,0,0,0,0,0,0,0,0,0,0,0,0,0,0,0,0,0,0,0,0,0,0,0,0,0,0,0,0,0,0,0,0,0,0,0,0,0,0,0,0,0,0,0,0,0,0,0,0,0,0,0,0,0,0,0,0,0,0,0,0,0],"trees":[{"base_weights":[-7.7292874E-2,-2.6277196E-1,2.34039E-1,-3.9036658E-1,3.660099E-4,1.14288434E-1,5.171017E-1,-3.3861852E-1,-9.54866E-1,6.950021E-2,-5.1153255E-1,3.2192576E-1,1.2884956E-2,8.4471667E-1,3.266394E-1,-4.011863E-1,8.4084086E-2,-1.7791932E0,-5.4373026E-1,1.2407635E-1,-4.170096E-1,4.4827586E-1,-5.709625E-1,7.0832394E-2,7.725983E-1,-1.7798533E-1,2.2851975E-1,9.296158E-1,7.317073E-2,4.159762E-1,-1.2987013E-1,-4.3268424E-1,6.463878E-1,8.067227E-1,3.827751E-2,-3.529412E-1,-1.8245614E0,-1.0237288E0,-4.542626E-1,9.862312E-2,7.5396824E-1,-1.5571429E0,2.9268292E-1,-1.2E0,6.666667E-1,-8.797251E-1,-4.2664552E-1,2.313476E-1,-4.964249E-1,4.8723897E-1,9.23555E-1,-9.024064E-2,-5.2409244E-1,4.7917688E-1,1.1703285E-1,1.0185759E0,2.825485E-1,-3.3846155E-1,6.569343E-1,4.7467166E-1,-1.47651E-1,-3.6719706E-2,-8.108108E-1,-4.525946E-1,4.7517732E-1,-6.666667E-1,8.299712E-1,9.677419E-1,2.1428572E-1,1.2832764E-1,-2.7751195E-1,-8.5714287E-1,1.2E0,-1.8325992E0,-0E0,-1.0833334E0,9.0909094E-1,3.258786E-1,-6.4098614E-1,1.2292553E-1,-4.7920793E-1,1.6216215E-1,9.1183877E-1,-1.6300578E0,-5.777778E-1,-2.4E-1,3.968254E-1,-5E-1,7.326733E-1,-7.368421E-1,-1.6086956E0,-3.378016E-1,-1.0958904E0,7.470511E-1,8.5216746E-2,-3.011583E-1,-1.2233009E0,1.0086455E0,1.3487476E-1,9.731183E-1,3.04E-1,1.0490405E-1,-2.1575624E-1,-5.9361994E-1,8.051948E-1,3.483077E-1,9.809524E-1,1.7961042E-1,-2.654321E-1,8.5363984E-1,1.1831645E0,-9.52381E-2,9.2537314E-1,-4.8366013E-1,1.7391305E-1,-2.4E-1,8.2758623E-1,3.8990018E-1,8.074246E-1,-2.5061426E-1,8.181818E-1,4.3010753E-2,-8.051948E-1,-8.952381E-1,4E-1],"categories":[],"categories_nodes":[],"categories_segments":[],"categories_sizes":[],"default_left":[1,1,1,1,1,1,1,1,1,1,1,1,1,1,1,1,1,1,1,1,1,1,1,1,1,1,1,1,1,1,1,1,1,1,1,1,1,1,1,1,1,1,1,0,1,1,1,1,1,1,1,1,1,1,1,1,1,1,1,1,1,1,1,0,0,0,0,0,0,0,0,0,0,0,0,0,0,0,0,0,0,0,0,0,0,0,0,0,0,0,0,0,0,0,0,0,0,0,0,0,0,0,0,0,0,0,0,0,0,0,0,0,0,0,0,0,0,0,0,0,0,0,0,0,0],"id":0,"left_children":[1,3,5,7,9,11,13,15,17,19,21,23,25,27,29,31,33,35,37,39,41,43,45,47,49,51,53,55,57,59,61,63,65,67,69,71,73,75,77,79,81,83,85,-1,87,89,91,93,95,97,99,101,103,105,107,109,111,113,115,117,119,121,123,-1,-1,-1,-1,-1,-1,-1,-1,-1,-1,-1,-1,-1,-1,-1,-1,-1,-1,-1,-1,-1,-1,-1,-1,-1,-1,-1,-1,-1,-1,-1,-1,-1,-1,-1,-1,-1,-1,-1,-1,-1,-1,-1,-1,-1,-1,-1,-1,-1,-1,-1,-1,-1,-1,-1,-1,-1,-1,-1,-1,-1,-1],"loss_changes":[1.1561997E3,4.2126544E2,2.533288E2,2.4650854E2,1.4507138E2,1.1062485E2,1.3837311E2,2.0478412E2,2.3932007E2,9.594368E1,2.8077873E1,1.9503464E2,1.4538083E2,5.3399292E1,5.7425644E1,2.2279944E2,3.3037617E1,1.4594421E1,1.9912048E1,5.2000137E1,2.9538876E2,1.1239081E1,2.0110977E1,1.010248E2,2.6117676E1,5.6856724E1,4.6290672E1,4.203546E1,1.9926613E1,3.899977E1,1.4622539E1,1.18566895E2,4.8101402E1,5.4685516E0,2.6780502E1,7.6840334E0,3.343689E0,9.481201E0,5.87321E1,4.3914215E1,1.1624153E1,9.055634E0,1.2604832E1,0E0,2.3877888E0,1.3969559E1,1.837405E1,6.508522E1,3.4370094E1,3.94567E1,1.2056152E1,3.6665215E1,3.5482857E1,3.3164894E1,2.7553513E1,1.6526733E1,2.200539E1,3.7109227E0,5.4410467E0,2.9754852E1,1.1318058E1,1.2549207E1,3.194851E0,0E0,0E0,0E0,0E0,0E0,0E0,0E0,0E0,0E0,0E0,0E0,0E0,0E0,0E0,0E0,0E0,0E0,0E0,0E0,0E0,0E0,0E0,0E0,0E0,0E0,0E0,0E0,0E0,0E0,0E0,0E0,0E0,0E0,0E0,0E0,0E0,0E0,0E0,0E0,0E0,0E0,0E0,0E0,0E0,0E0,0E0,0E0,0E0,0E0,0E0,0E0,0E0,0E0,0E0,0E0,0E0,0E0,0E0,0E0,0E0,0E0,0E0],"parents":[2147483647,0,0,1,1,2,2,3,3,4,4,5,5,6,6,7,7,8,8,9,9,10,10,11,11,12,12,13,13,14,14,15,15,16,16,17,17,18,18,19,19,20,20,21,21,22,22,23,23,24,24,25,25,26,26,27,27,28,28,29,29,30,30,31,31,32,32,33,33,34,34,35,35,36,36,37,37,38,38,39,39,40,40,41,41,42,42,44,44,45,45,46,46,47,47,48,48,49,49,50,50,51,51,52,52,53,53,54,54,55,55,56,56,57,57,58,58,59,59,60,60,61,61,62,62],"right_children":[2,4,6,8,10,12,14,16,18,20,22,24,26,28,30,32,34,36,38,40,42,44,46,48,50,52,54,56,58,60,62,64,66,68,70,72,74,76,78,80,82,84,86,-1,88,90,92,94,96,98,100,102,104,106,108,110,112,114,116,118,120,122,124,-1,-1,-1,-1,-1,-1,-1,-1,-1,-1,-1,-1,-1,-1,-1,-1,-1,-1,-1,-1,-1,-1,-1,-1,-1,-1,-1,-1,-1,-1,-1,-1,-1,-1,-1,-1,-1,-1,-1,-1,-1,-1,-1,-1,-1,-1,-1,-1,-1,-1,-1,-1,-1,-1,-1,-1,-1,-1,-1,-1,-1,-1],"split_conditions":[1.185E2,7.6994896E-2,1.415E2,5.995E2,3.2055038E-1,1.368E3,1.302E3,4.1747046E-1,6.005E2,5.995E2,3.04E2,8.975E2,3.482616E-1,1.9641513E-1,3.4819078E-1,6.983095E-1,6.75E1,7.1E1,6.015E2,5.384692E-1,6.015E2,4.9E1,2.475E3,1.6640708E-1,1.1675E3,4.6651232E-1,3.0965E3,5.63097E-1,5.2273995E-1,4.6239525E-1,4.013478E-1,3.7280443E-1,9.85E1,4.205E2,5.5205333E-1,4.1127694E-1,6.2355274E-1,4.7676E4,6.045E2,6.305684E-1,1.0785E3,4.5445412E-1,7.795E2,-3.6E-1,2.3E1,2.4065E3,5.99E2,1.225E2,4.2666173E-1,9.82E2,2.895671E-1,2.74E2,4.2819387E-1,2.8525E3,5.6E2,3.8271683E-1,1.034E3,4.725E2,9.4E1,1.77E2,1.985E2,5.89E2,6.015E2,-1.3577838E-1,1.425532E-1,-2.0000002E-1,2.4899137E-1,2.9032257E-1,6.428572E-2,3.8498294E-2,-8.325359E-2,-2.5714287E-1,3.6E-1,-5.497798E-1,-0E0,-3.2500002E-1,2.7272728E-1,9.776358E-2,-1.9229585E-1,3.687766E-2,-1.4376238E-1,4.8648648E-2,2.7355164E-1,-4.8901737E-1,-1.7333335E-1,-7.2000004E-2,1.1904763E-1,-1.5E-1,2.1980199E-1,-2.2105263E-1,-4.826087E-1,-1.0134049E-1,-3.2876712E-1,2.2411534E-1,2.5565024E-2,-9.03475E-2,-3.669903E-1,3.0259368E-1,4.046243E-2,2.919355E-1,9.12E-2,3.1471215E-2,-6.4726874E-2,-1.7808598E-1,2.4155845E-1,1.04492314E-1,2.942857E-1,5.3883128E-2,-7.962963E-2,2.5609195E-1,3.5494936E-1,-2.857143E-2,2.7761194E-1,-1.4509805E-1,5.2173916E-2,-7.2000004E-2,2.4827588E-1,1.16970055E-1,2.4222739E-1,-7.518428E-2,2.4545455E-1,1.2903227E-2,-2.4155845E-1,-2.6857144E-1,1.20000005E-1],"split_indices":[1,11,1,3,4,0,0,6,3,3,0,0,11,13,13,19,1,1,3,24,3,0,0,8,0,4,0,11,13,21,23,10,1,3,7,5,14,0,3,23,0,12,0,0,3,0,3,1,4,0,18,3,15,0,3,11,0,3,3,1,1,3,3,0,0,0,0,0,0,0,0,0,0,0,0,0,0,0,0,0,0,0,0,0,0,0,0,0,0,0,0,0,0,0,0,0,0,0,0,0,0,0,0,0,0,0,0,0,0,0,0,0,0,0,0,0,0,0,0,0,0,0,0,0,0],"split_type":[0,0,0,0,0,0,0,0,0,0,0,0,0,0,0,0,0,0,0,0,0,0,0,0,0,0,0,0,0,0,0,0,0,0,0,0,0,0,0,0,0,0,0,0,0,0,0,0,0,0,0,0,0,0,0,0,0,0,0,0,0,0,0,0,0,0,0,0,0,0,0,0,0,0,0,0,0,0,0,0,0,0,0,0,0,0,0,0,0,0,0,0,0,0,0,0,0,0,0,0,0,0,0,0,0,0,0,0,0,0,0,0,0,0,0,0,0,0,0,0,0,0,0,0,0],"sum_hessian":[2.002025E4,1.2546E4,7.47425E3,8.44875E3,4.09725E3,5.25325E3,2.221E3,7.74075E3,7.08E2,3.6105E3,4.8675E2,1.723E3,3.53025E3,8.1525E2,1.40575E3,6.74275E3,9.98E2,2.345E2,4.735E2,3.247E3,3.635E2,2.8E1,4.5875E2,1.10725E3,6.1575E2,1.87275E3,1.6575E3,7.3425E2,8.1E1,1.17575E3,2.3E2,6.5465E3,1.9625E2,5.85E1,9.395E2,7.5E0,2.27E2,7.275E1,4.0075E2,3.122E3,1.25E2,1.39E2,2.245E2,2.75E0,2.525E1,1.445E2,3.1425E2,8.635E2,2.4375E2,2.145E2,4.0125E2,1.495E3,3.7775E2,5.0925E2,1.14825E3,6.45E2,8.925E1,4.775E1,3.325E1,1.065E3,1.1075E2,2.0325E2,2.675E1,6.4065E3,1.4E2,2.375E1,1.725E2,4.55E1,1.3E1,7.315E2,2.08E2,6E0,1.5E0,2.26E2,1E0,7.1E1,1.75E0,7.725E1,3.235E2,2.99675E3,1.2525E2,2.675E1,9.825E1,1.2875E2,1.025E1,3.65E1,1.88E2,1E0,2.425E1,1.225E2,2.2E1,2.7875E2,3.55E1,1.8975E2,6.7375E2,1.9325E2,5.05E1,8.575E1,1.2875E2,3.71E2,3.025E1,5.8525E2,9.0975E2,3.595E2,1.825E1,4.0525E2,1.04E2,9.8725E2,1.61E2,3.2525E2,3.1975E2,5.675E1,3.25E1,3.725E1,1.05E1,5.25E0,2.8E1,8.505E2,2.145E2,1.0075E2,1E1,1.85E2,1.825E1,2.525E1,1.5E0],"tree_param":{"num_deleted":"0","num_feature":"26","num_nodes":"125","size_leaf_vector":"0"}},{"base_weights":[-5.457404E-2,-1.4977716E-1,2.6678264E-1,-1.1290597E-1,-5.455176E-1,1.8945873E-1,5.5667204E-1,-2.0271812E-1,5.2160043E-2,-1.2264284E0,-9.613631E-2,1.3091409E-1,5.6974435E-1,6.359525E-1,5.036197E-3,2.7332066E-2,-3.0497345E-1,1.0098773E-1,-2.878238E-1,-1.3828102E0,-7.220985E-1,-2.625817E-1,2.965589E-1,2.8382164E-1,2.7525395E-2,6.959301E-1,2.9837814E-1,-4.585053E-2,6.737995E-1,-4.4748634E-1,2.5619495E-1,-2.4594054E-1,6.3178855E-1,-9.659938E-2,-3.9922878E-1,-3.9342898E-1,1.266526E-1,-3.9725465E-1,-1.1995459E-2,-2.8203008E-1,-1.4021548E0,-8.488633E-1,1.9776124E-1,2.1858509E-1,-3.9621648E-1,3.5372448E-1,-9.345076E-1,2.5773102E-1,7.7288985E-1,-2.5653127E-1,8.495179E-2,7.296331E-1,7.674559E-2,9.852599E-2,9.1765773E-1,7.242829E-1,-1.039876E0,6.90009E-1,-1.4008325E0,2.4834523E-1,-6.752054E-1,1.8512654E-1,7.8742266E-1,-3.8676357E-1,2.1008134E-1,6.6852903E-1,-1.1307644E0,-5.864232E-1,-8.994459E-3,-5.3138286E-1,-1.5203105E-1,1.7653564E-1,-1.0134611E0,2.9683575E-1,5.2159898E-2,-6.09272E-1,-2.9457176E-1,-9.766513E-2,6.45458E-1,-8.7349826E-1,6.615602E-1,-1.4123132E0,-3.7110504E-2,-8.7631893E-1,3.5026258E-1,6.9243914E-1,-1.1511322E0,1.5938115E0,1.14212155E-1,-3.363648E-1,-1.3127284E0,3.8112158E-1,-1.2657365E0,8.640511E-2,-1.2147189E0,-4.777232E-2,2.9662207E-1,-7.6218784E-1,8.4768504E-1,-3.1649522E-2,-4.7536024E-1,1.5313579E-1,-2.9050255E-1,7.5212955E-1,-1.16976686E-1,-8.022066E-1,4.9285623E-1,2.9197133E-1,-2.9579002E-1,1.0956948E0,-1.4622552E-2,1.0775328E-1,1.4448497E0,-1.2245333E0,7.480297E-1,7.3007035E-1,1.5924166E-1,-5.2072376E-1,5.8109415E-1,-7.988E-1,-3.981011E-1,4.2586905E-1,5.2353606E-2,1.0368406E0,2.6428512E-1],"categories":[],"categories_nodes":[],"categories_segments":[],"categories_sizes":[],"default_left":[1,1,1,1,1,1,1,1,1,1,1,1,1,1,1,1,1,1,1,1,1,1,1,1,1,1,1,1,1,1,1,1,1,1,1,1,1,1,1,1,1,1,1,1,1,1,1,1,1,1,1,1,1,1,1,1,1,1,0,1,1,1,1,0,0,0,0,0,0,0,0,0,0,0,0,0,0,0,0,0,0,0,0,0,0,0,0,0,0,0,0,0,0,0,0,0,0,0,0,0,0,0,0,0,0,0,0,0,0,0,0,0,0,0,0,0,0,0,0,0,0,0,0,0,0],"id":1,"left_children":[1,3,5,7,9,11,13,15,17,19,21,23,25,27,29,31,33,35,37,39,41,43,45,47,49,51,53,55,57,59,61,63,65,67,69,71,73,75,77,79,81,83,85,87,89,91,93,95,97,99,101,103,105,107,109,111,113,115,-1,117,119,121,123,-1,-1,-1,-1,-1,-1,-1,-1,-1,-1,-1,-1,-1,-1,-1,-1,-1,-1,-1,-1,-1,-1,-1,-1,-1,-1,-1,-1,-1,-1,-1,-1,-1,-1,-1,-1,-1,-1,-1,-1,-1,-1,-1,-1,-1,-1,-1,-1,-1,-1,-1,-1,-1,-1,-1,-1,-1,-1,-1,-1,-1,-1],"loss_changes":[6.0893896E2,2.239819E2,1.0186185E2,2.0825758E2,4.002344E2,7.991049E1,4.1866028E1,2.1401602E2,8.2212204E1,4.002118E1,5.1667393E1,4.923109E1,1.6194412E1,2.1630432E1,1.3902063E1,4.6272034E2,1.23659E2,5.4989223E1,1.8768734E1,8.035034E0,1.4766312E1,3.5764496E1,1.6898485E1,1.5831551E1,3.0351515E1,6.7514496E0,1.894297E1,3.5169697E1,2.763733E1,7.0861034E0,2.8234434E0,1.2397164E2,5.7233307E1,8.422469E1,1.4157593E2,7.577094E1,5.2174057E1,9.514275E0,1.00716305E1,5.0924525E0,5.3392334E0,3.9356995E0,1.1456267E1,1.7221806E1,2.3398888E1,1.0496513E1,3.172101E0,1.4202797E1,7.8941154E0,1.5384176E1,3.9657524E1,5.9779053E0,6.9629655E0,9.040438E0,6.2238235E0,1.1359779E1,7.5310574E0,1.6631042E1,0E0,3.244697E0,8.1785774E-1,2.2367582E0,8.967352E-1,0E0,0E0,0E0,0E0,0E0,0E0,0E0,0E0,0E0,0E0,0E0,0E0,0E0,0E0,0E0,0E0,0E0,0E0,0E0,0E0,0E0,0E0,0E0,0E0,0E0,0E0,0E0,0E0,0E0,0E0,0E0,0E0,0E0,0E0,0E0,0E0,0E0,0E0,0E0,0E0,0E0,0E0,0E0,0E0,0E0,0E0,0E0,0E0,0E0,0E0,0E0,0E0,0E0,0E0,0E0,0E0,0E0,0E0,0E0,0E0,0E0,0E0],"parents":[2147483647,0,0,1,1,2,2,3,3,4,4,5,5,6,6,7,7,8,8,9,9,10,10,11,11,12,12,13,13,14,14,15,15,16,16,17,17,18,18,19,19,20,20,21,21,22,22,23,23,24,24,25,25,26,26,27,27,28,28,29,29,30,30,31,31,32,32,33,33,34,34,35,35,36,36,37,37,38,38,39,39,40,40,41,41,42,42,43,43,44,44,45,45,46,46,47,47,48,48,49,49,50,50,51,51,52,52,53,53,54,54,55,55,56,56,57,57,59,59,60,60,61,61,62,62],"right_children":[2,4,6,8,10,12,14,16,18,20,22,24,26,28,30,32,34,36,38,40,42,44,46,48,50,52,54,56,58,60,62,64,66,68,70,72,74,76,78,80,82,84,86,88,90,92,94,96,98,100,102,104,106,108,110,112,114,116,-1,118,120,122,124,-1,-1,-1,-1,-1,-1,-1,-1,-1,-1,-1,-1,-1,-1,-1,-1,-1,-1,-1,-1,-1,-1,-1,-1,-1,-1,-1,-1,-1,-1,-1,-1,-1,-1,-1,-1,-1,-1,-1,-1,-1,-1,-1,-1,-1,-1,-1,-1,-1,-1,-1,-1,-1,-1,-1,-1,-1,-1,-1,-1,-1,-1],"split_conditions":[1.285E2,5.995E2,2.767949E-1,2.0412743E-1,6.015E2,7.191858E-1,4.7195882E-1,1.3575E3,3.2055038E-1,6.005E2,4.1112626E-1,2.725E2,3.3855E3,2.95E1,4.8285E3,8.95E2,2.175E2,2.95E1,5.986669E-1,6.05E1,4.882232E-1,6.055E2,7.173848E-1,7.4410677E-1,3.245E2,5.99E2,6.27625E4,2.15E1,1.29627E5,1.325E2,1.465E2,1.165E2,5.8378935E-1,2.95E1,4.505E2,1.95E1,2.165E2,2.475E3,5.19E2,1.7160879E-1,6.1895686E-1,6.56062E-1,5.885401E-1,6.025E2,6.133013E-1,7.300495E-1,9.7E1,2.95E1,4.68E2,3.249E3,5.965E2,2.305E2,4.415E2,4.235E2,5.57E2,1.75E1,1.8347393E-1,5.905E2,-4.202498E-1,1.72E2,1.5508363E-1,1.32E2,3.665E2,-1.1602908E-1,6.30244E-2,2.0055872E-1,-3.3922932E-1,-1.7592697E-1,-2.698338E-3,-1.5941486E-1,-4.5609318E-2,5.2960694E-2,-3.0403835E-1,8.9050725E-2,1.564797E-2,-1.827816E-1,-8.837153E-2,-2.929954E-2,1.936374E-1,-2.620495E-1,1.9846806E-1,-4.2369398E-1,-1.1133151E-2,-2.628957E-1,1.0507878E-1,2.0773175E-1,-3.453397E-1,4.7814348E-1,3.4263648E-2,-1.0090945E-1,-3.9381853E-1,1.14336476E-1,-3.7972096E-1,2.5921535E-2,-3.644157E-1,-1.43316975E-2,8.898662E-2,-2.2865637E-1,2.543055E-1,-9.494857E-3,-1.4260808E-1,4.594074E-2,-8.715077E-2,2.2563888E-1,-3.5093006E-2,-2.4066198E-1,1.4785688E-1,8.75914E-2,-8.873701E-2,3.2870844E-1,-4.386766E-3,3.2325983E-2,4.3345493E-1,-3.6736E-1,2.2440892E-1,2.1902111E-1,4.77725E-2,-1.5621713E-1,1.7432825E-1,-2.3964001E-1,-1.1943033E-1,1.2776072E-1,1.5706083E-2,3.1105217E-1,7.928554E-2],"split_indices":[1,3,9,11,3,24,19,0,4,3,11,3,0,3,0,0,3,3,9,1,12,3,23,25,3,3,0,3,0,1,1,1,7,3,3,3,3,0,3,5,14,5,7,3,12,12,1,3,0,0,3,1,0,3,3,3,5,3,0,3,4,1,3,0,0,0,0,0,0,0,0,0,0,0,0,0,0,0,0,0,0,0,0,0,0,0,0,0,0,0,0,0,0,0,0,0,0,0,0,0,0,0,0,0,0,0,0,0,0,0,0,0,0,0,0,0,0,0,0,0,0,0,0,0,0],"split_type":[0,0,0,0,0,0,0,0,0,0,0,0,0,0,0,0,0,0,0,0,0,0,0,0,0,0,0,0,0,0,0,0,0,0,0,0,0,0,0,0,0,0,0,0,0,0,0,0,0,0,0,0,0,0,0,0,0,0,0,0,0,0,0,0,0,0,0,0,0,0,0,0,0,0,0,0,0,0,0,0,0,0,0,0,0,0,0,0,0,0,0,0,0,0,0,0,0,0,0,0,0,0,0,0,0,0,0,0,0,0,0,0,0,0,0,0,0,0,0,0,0,0,0,0,0],"sum_hessian":[1.9901457E4,1.5353469E4,4.547989E3,1.4046079E4,1.3073898E3,3.5916262E3,9.563625E2,9.096475E3,4.9496045E3,5.191043E2,7.8828546E2,3.11363E3,4.7799634E2,8.360531E2,1.2030941E2,2.7993457E3,6.297129E3,4.3286387E3,6.2096606E2,3.9490945E2,1.2419487E2,5.538608E2,2.3442471E2,1.2553196E3,1.8583103E3,3.25209E2,1.5278731E2,4.3957653E1,7.9209546E2,4.2661976E1,7.764743E1,1.9282045E3,8.711412E2,1.9619003E3,4.3352285E3,2.1290155E2,4.1157373E3,4.4426874E2,1.7669733E2,7.089145E0,3.878203E2,1.09220505E2,1.4974362E1,1.2025035E2,4.336104E2,2.2470311E2,9.721603E0,1.1931926E3,6.2127003E1,3.1192456E2,1.5463857E3,3.0825208E2,1.6956934E1,1.1638649E2,3.6400818E1,2.4921093E1,1.903656E1,7.866169E2,5.478576E0,1.0496791E1,3.2165184E1,6.9674736E1,7.972698E0,1.4733688E3,4.5483566E2,8.53961E2,1.7180157E1,2.9678693E2,1.6651134E3,2.8242239E3,1.5110046E3,1.1130224E2,1.0159932E2,1.2521466E3,2.8635906E3,1.4334975E2,3.00919E2,1.5708037E2,1.9616955E1,4.4033113E0,2.6858337E0,3.8492117E2,2.8991485E0,1.0703891E2,2.181601E0,1.1312431E1,3.6619313E0,7.475971E0,1.12774376E2,4.0831305E2,2.5297363E1,2.2171689E2,2.9862165E0,2.2426069E0,7.4789968E0,1.3471664E2,1.058476E3,2.4594543E0,5.9667545E1,1.5439928E2,1.575253E2,1.3092186E3,2.3716716E2,3.0038184E2,7.870254E0,5.150225E0,1.1806709E1,7.825523E1,3.8131256E1,3.0416843E1,5.983972E0,1.4049573E1,1.0871521E1,1.7540096E1,1.4964635E0,7.310621E2,5.5554813E1,2.9994256E0,7.4973655E0,2.0941946E1,1.1223238E1,2.3982471E1,4.569226E1,4.7337894E0,3.2389088E0],"tree_param":{"num_deleted":"0","num_feature":"26","num_nodes":"125","size_leaf_vector":"0"}},{"base_weights":[-3.9160542E-2,-1.8255422E-1,8.699907E-2,-2.2948615E-1,1.2613052E-1,6.61028E-2,6.238468E-1,-1.2648088E-1,-3.8825604E-1,8.975522E-3,2.7333814E-1,-1.348634E-3,1.88073E-1,7.9337734E-1,2.7651188E-1,-1.9201735E-1,4.2758447E-1,-1.8630879E-2,-4.7109553E-1,2.755263E-1,-1.18841715E-1,6.702659E-1,2.003481E-1,-2.07507E-2,5.3538793E-1,2.5389332E-1,6.8789706E-2,1.9514133E-1,8.276571E-1,3.3441925E-1,-3.6688343E-1,-4.27069E-1,-9.622196E-2,1.0935683E0,3.193023E-1,-6.6978115E-1,2.09078E-1,-5.918861E-1,-2.557908E-1,8.955293E-1,2.0168953E-1,1.11927524E-1,-3.1881207E-1,-8.2409984E-1,7.3106277E-1,-7.858391E-2,3.1924602E-1,1.13895796E-1,-8.76562E-2,4.0354103E-1,7.802648E-1,2.935263E-1,-8.487492E-2,-6.3775005E-3,5.1512074E-1,7.0088154E-1,-1.3493314E-1,2.1554741E-1,8.558991E-1,5.157739E-2,4.0452796E-1,2.0419122E-1,-1.4770284E0,-4.5631662E-1,9.506815E-1,4.7964334E-1,-2.2783555E-1,7.477184E-1,1.139283E0,-3.7936822E-1,4.4943017E-1,-5.6589293E-1,-1.6240915E0,9.566076E-2,1.0032421E0,-6.343197E-1,2.3760357E-1,-3.0391395E-1,8.0781895E-1,-2.1968804E-1,1.1681411E0,-7.8572387E-1,2.3770942E-1,-2.3434555E-2,4.6002814E-1,-7.465833E-1,-1.2790316E-1,-2.944341E-1,-1.0439519E0,4.0433642E-1,8.445311E-1,-1.3880087E-1,1.2780299E0,5.3159195E-1,1.1801232E-1,-4.3087583E-2,5.9429127E-1,-6.5293305E-2,-5.01202E-1,9.235092E-2,5.6739837E-1,-2.788051E-1,8.187556E-1,3.3487144E-1,-8.984529E-2,-7.9590315E-1,7.427005E-2,-5.9418343E-2,4.4220924E-1,3.5159413E-2,6.6006446E-1,4.049633E-1,9.651107E-1,-7.1063006E-1,1.7204651E-1,7.217868E-1,-6.0658073E-1,8.955992E-1,3.4105858E-1,1.662905E-1,-1.1856141E0,4.5440134E-1,-1.6717666E-1,-3.335356E-1,6.011604E-1],"categories":[],"categories_nodes":[],"categories_segments":[],"categories_sizes":[],"default_left":[1,1,1,1,1,1,1,1,1,1,1,1,1,1,1,1,1,1,1,1,1,1,1,1,1,1,1,1,1,1,1,1,1,1,1,1,1,1,1,1,1,1,1,1,1,1,1,1,1,1,1,1,1,1,1,1,1,1,1,1,1,1,0,0,0,0,0,0,0,0,0,0,0,0,0,0,0,0,0,0,0,0,0,0,0,0,0,0,0,0,0,0,0,0,0,0,0,0,0,0,0,0,0,0,0,0,0,0,0,0,0,0,0,0,0,0,0,0,0,0,0,0,0,0,0],"id":2,"left_children":[1,3,5,7,9,11,13,15,17,19,21,23,25,27,29,31,33,35,37,39,41,43,45,47,49,51,53,55,57,59,61,63,65,67,69,71,73,75,77,79,81,83,85,87,89,91,93,95,97,99,101,103,105,107,109,111,113,115,117,119,121,123,-1,-1,-1,-1,-1,-1,-1,-1,-1,-1,-1,-1,-1,-1,-1,-1,-1,-1,-1,-1,-1,-1,-1,-1,-1,-1,-1,-1,-1,-1,-1,-1,-1,-1,-1,-1,-1,-1,-1,-1,-1,-1,-1,-1,-1,-1,-1,-1,-1,-1,-1,-1,-1,-1,-1,-1,-1,-1,-1,-1,-1,-1,-1],"loss_changes":[3.5658807E2,1.3367981E2,1.1759211E2,1.3091965E2,2.1006079E1,8.304646E1,2.290712E1,1.765057E2,9.6463745E1,2.317819E1,1.550486E1,6.770891E1,2.8203827E1,5.2399597E0,4.979375E0,9.780373E1,3.6733017E1,8.582442E1,6.678479E1,9.912941E0,2.1257296E1,8.18132E0,1.5194078E1,5.6538425E1,7.008644E0,3.112001E1,4.29306E1,2.6959212E0,4.116745E0,2.3609705E0,7.4277496E0,5.1122116E1,2.3419191E2,2.786026E-1,4.0511402E1,1.3948738E1,3.8537533E1,5.815851E1,4.7681454E1,7.301634E0,7.2400312E0,1.01054125E1,2.004609E1,1.2712073E-1,2.6498756E0,1.1409931E1,1.3649143E1,1.571444E2,3.8740177E1,7.5714836E0,3.420765E0,3.2898163E1,2.7595251E1,2.610587E1,1.280772E1,1.0297513E-1,1.9368614E0,5.5611873E0,4.548813E0,3.7459521E0,2.8163204E0,1.9724127E0,0E0,0E0,0E0,0E0,0E0,0E0,0E0,0E0,0E0,0E0,0E0,0E0,0E0,0E0,0E0,0E0,0E0,0E0,0E0,0E0,0E0,0E0,0E0,0E0,0E0,0E0,0E0,0E0,0E0,0E0,0E0,0E0,0E0,0E0,0E0,0E0,0E0,0E0,0E0,0E0,0E0,0E0,0E0,0E0,0E0,0E0,0E0,0E0,0E0,0E0,0E0,0E0,0E0,0E0,0E0,0E0,0E0,0E0,0E0,0E0,0E0,0E0,0E0],"parents":[2147483647,0,0,1,1,2,2,3,3,4,4,5,5,6,6,7,7,8,8,9,9,10,10,11,11,12,12,13,13,14,14,15,15,16,16,17,17,18,18,19,19,20,20,21,21,22,22,23,23,24,24,25,25,26,26,27,27,28,28,29,29,30,30,31,31,32,32,33,33,34,34,35,35,36,36,37,37,38,38,39,39,40,40,41,41,42,42,43,43,44,44,45,45,46,46,47,47,48,48,49,49,50,50,51,51,52,52,53,53,54,54,55,55,56,56,57,57,58,58,59,59,60,60,61,61],"right_children":[2,4,6,8,10,12,14,16,18,20,22,24,26,28,30,32,34,36,38,40,42,44,46,48,50,52,54,56,58,60,62,64,66,68,70,72,74,76,78,80,82,84,86,88,90,92,94,96,98,100,102,104,106,108,110,112,114,116,118,120,122,124,-1,-1,-1,-1,-1,-1,-1,-1,-1,-1,-1,-1,-1,-1,-1,-1,-1,-1,-1,-1,-1,-1,-1,-1,-1,-1,-1,-1,-1,-1,-1,-1,-1,-1,-1,-1,-1,-1,-1,-1,-1,-1,-1,-1,-1,-1,-1,-1,-1,-1,-1,-1,-1,-1,-1,-1,-1,-1,-1,-1,-1,-1,-1],"split_conditions":[1.095E2,3.8225335E-1,8.256359E-1,4.0295E3,3.2971263E-1,1.315E2,3.889E3,5.4634774E-1,1.31E2,2.175E2,5.99E2,7.319876E-1,1.5691534E-1,2.6E1,1.615E2,8.85E2,5.4884577E-1,5.15E1,3.0741656E-1,6.35E1,4.3086308E-1,7.95E1,3.9755E3,1.3765E3,3.6435E3,6.7522126E-1,1.785E2,2.405E2,2.95E1,1.405E2,5.07E2,8.548533E-1,1.3015E3,6.95E1,5.997101E-1,5E1,1.185E2,9.0586007E-1,5.289674E-1,5.15E1,3.385E2,4.7581005E-1,3.315E2,3.6E2,1.565E2,4.7069013E-1,2.7675E4,1.102E3,5.6422174E-1,7.727374E-1,2.15E1,4.8585612E-1,4.8205554E-1,6.8797207E-1,4.6278322E-1,1.825E2,3.355E2,2.05E1,5.865E2,1.29E2,5.94E2,1.805E2,-4.4310853E-1,-1.3689499E-1,2.8520447E-1,1.43893E-1,-6.8350665E-2,2.2431552E-1,3.417849E-1,-1.1381047E-1,1.3482906E-1,-1.6976789E-1,-4.8722747E-1,2.869823E-2,3.0097264E-1,-1.9029592E-1,7.1281075E-2,-9.1174185E-2,2.4234569E-1,-6.590641E-2,3.5044235E-1,-2.3571716E-1,7.131283E-2,-7.030367E-3,1.3800845E-1,-2.2397499E-1,-3.8370952E-2,-8.833023E-2,-3.1318557E-1,1.2130093E-1,2.5335935E-1,-4.1640263E-2,3.83409E-1,1.5947759E-1,3.5403695E-2,-1.2926276E-2,1.7828739E-1,-1.9587992E-2,-1.503606E-1,2.7705278E-2,1.7021951E-1,-8.364154E-2,2.456267E-1,1.0046144E-1,-2.695359E-2,-2.3877095E-1,2.2281015E-2,-1.7825503E-2,1.3266277E-1,1.0547824E-2,1.9801934E-1,1.21488996E-1,2.8953323E-1,-2.1318902E-1,5.1613957E-2,2.1653605E-1,-1.8197423E-1,2.6867977E-1,1.0231758E-1,4.9887154E-2,-3.5568425E-1,1.3632041E-1,-5.0153002E-2,-1.0006069E-1,1.8034813E-1],"split_indices":[1,6,9,0,5,1,0,9,3,3,0,19,5,0,1,0,9,3,11,1,7,1,0,0,0,21,1,3,3,3,3,24,0,3,9,3,3,10,13,3,0,16,3,3,3,5,0,0,4,19,3,19,11,16,5,3,3,3,3,3,3,3,0,0,0,0,0,0,0,0,0,0,0,0,0,0,0,0,0,0,0,0,0,0,0,0,0,0,0,0,0,0,0,0,0,0,0,0,0,0,0,0,0,0,0,0,0,0,0,0,0,0,0,0,0,0,0,0,0,0,0,0,0,0,0],"split_type":[0,0,0,0,0,0,0,0,0,0,0,0,0,0,0,0,0,0,0,0,0,0,0,0,0,0,0,0,0,0,0,0,0,0,0,0,0,0,0,0,0,0,0,0,0,0,0,0,0,0,0,0,0,0,0,0,0,0,0,0,0,0,0,0,0,0,0,0,0,0,0,0,0,0,0,0,0,0,0,0,0,0,0,0,0,0,0,0,0,0,0,0,0,0,0,0,0,0,0,0,0,0,0,0,0,0,0,0,0,0,0,0,0,0,0,0,0,0,0,0,0,0,0,0,0],"sum_hessian":[1.9709477E4,9.224461E3,1.0485017E4,8.0073E3,1.2171605E3,1.009327E4,3.9174738E2,4.857617E3,3.149683E3,6.783542E2,5.3880634E2,6.499779E3,3.5934907E3,2.623923E2,1.2935507E2,4.344402E3,5.132151E2,5.7688385E2,2.572799E3,2.1948447E2,4.5886972E2,8.241914E1,4.563872E2,6.2739478E3,2.2583064E2,2.3149675E3,1.2785233E3,1.458329E1,2.4780902E2,1.19114655E2,1.0240422E1,1.2569022E3,3.0874998E3,7.0501305E1,4.4271378E2,1.4896527E2,4.2791855E2,1.6470306E3,9.2576855E2,2.2172733E1,1.9731174E2,2.1323413E2,2.4563559E2,2.7312384E0,7.9687904E1,1.3650006E2,3.1988715E2,2.0824136E3,4.191534E3,1.4851497E2,7.7315674E1,2.072622E3,2.4234547E2,1.0950844E3,1.834389E2,5.3154902E0,9.2678E0,1.1310053E1,2.3649896E2,2.4005238E1,9.510942E1,7.300835E0,2.9395874E0,1.2314296E3,2.547263E1,5.738813E2,2.5136184E3,1.0257236E1,6.024407E1,6.9208824E1,3.7350494E2,1.3577727E2,1.3188009E1,3.7542352E2,5.2495033E1,1.5670989E3,7.993169E1,8.8637854E2,3.9390034E1,4.3935328E0,1.7779202E1,6.2118773E0,1.9109985E2,1.5420341E2,5.903072E1,7.489871E1,1.7073688E2,1.4872959E0,1.2439425E0,2.1717348E1,5.7970562E1,1.3155818E2,4.9418783E0,1.5484738E2,1.6503978E2,1.5702112E3,5.1220245E2,3.9775996E3,2.1393474E2,5.1766357E1,9.674861E1,2.4924603E0,7.482321E1,1.8709714E3,2.0165059E2,4.3590523E1,1.9875496E2,9.800687E2,1.1501566E2,4.2835983E1,1.4060292E2,3.7020617E0,1.6134287E0,2.7658777E0,6.501922E0,7.075342E0,4.234711E0,2.1888116E2,1.76178E1,2.2760466E1,1.2447734E0,8.766686E1,7.4425516E0,3.1685596E0,4.1322756E0],"tree_param":{"num_deleted":"0","num_feature":"26","num_nodes":"125","size_leaf_vector":"0"}},{"base_weights":[-2.766551E-2,-1.0879979E-1,8.617931E-2,-9.07157E-2,-7.2176945E-1,1.1334701E-1,-2.1019371E-1,6.438472E-2,-1.5589711E-1,-3.930058E-1,-8.3748585E-1,7.312028E-2,2.8760666E-1,-1.0690347E0,2.2847396E-1,-5.8474492E-2,5.6096977E-1,-1.2018458E-1,-4.7645667E-1,4.1312942E-1,-5.265988E-1,-5.666194E-1,-9.465671E-1,-2.5204343E-1,9.020273E-2,3.590013E-1,-1.822745E-2,-1.2015569E0,-6.6202E-1,-1.8632874E-1,3.1172818E-1,-1.0981951E-1,4.615084E-1,4.2501318E-1,7.6777864E-1,1.5452343E0,-1.2580921E-1,-5.1758987E-1,2.9373148E-1,-2.696165E-1,1.2796086E0,-6.6765445E-1,7.878505E-2,-6.165579E-1,1.2641495E0,-1.1949422E0,-7.7267605E-1,2.141941E-1,-7.501122E-1,2.8207478E-1,5.18933E-2,4.0340105E-1,-1.5040545E-1,-2.3877057E-1,6.683819E-2,4.681542E-1,-1.2154888E0,-8.2091475E-1,5.149561E-1,-2.3751453E-2,-8.4868455E-1,1.409957E0,2.825591E-1,-2.5526056E-1,2.1570446E-2,5.485668E-1,-1.1603005E0,4.8357132E-1,1.576399E-1,9.7989845E-1,6.4541703E-1,-5.214904E-1,1.6803313E0,-5.5297155E-2,-2.5246757E-1,-7.945425E-1,-4.1043338E-1,-1.1705757E0,5.6284356E-1,6.219332E-1,-9.708362E-1,-5.0423145E-2,1.8428851E0,-8.216516E-1,3.2874146E-1,1.3450669E0,-2.7431163E-1,-1.0459793E0,-4.299211E-1,-1.2366089E0,-7.856966E-1,5.574598E-1,-8.102246E-1,1.466834E0,9.929712E-2,7.067243E-1,-8.3517236E-1,1.3039677E-1,5.8695596E-1,-4.211105E-1,7.160965E-2,4.402056E-1,-1.2584382E-1,-2.6805654E-1,7.7539194E-1,6.998376E-1,-3.5216773E-1,3.217011E-2,7.4490154E-1,-1.2482672E0,-4.530961E-1,-8.518876E-2,-9.1129434E-1,-1.9079222E-1,9.969785E-1,-7.319712E-1,1.6540407E-1,-1.2146566E0,3.9848918E-1,2.9738304E-1,-1.0783793E0],"categories":[],"categories_nodes":[],"categories_segments":[],"categories_sizes":[],"default_left":[1,1,1,1,1,1,1,1,1,1,1,1,1,1,1,1,1,1,1,1,1,1,1,1,1,1,1,1,1,1,1,1,1,1,1,1,1,1,1,1,1,1,1,1,0,1,1,1,1,1,1,1,1,1,1,0,1,1,1,1,1,0,1,0,0,0,0,0,0,0,0,0,0,0,0,0,0,0,0,0,0,0,0,0,0,0,0,0,0,0,0,0,0,0,0,0,0,0,0,0,0,0,0,0,0,0,0,0,0,0,0,0,0,0,0,0,0,0,0,0,0],"id":3,"left_children":[1,3,5,7,9,11,13,15,17,19,21,23,25,27,29,31,33,35,37,39,41,43,45,47,49,51,53,55,57,59,61,63,65,67,69,71,73,75,77,79,81,83,85,87,-1,89,91,93,95,97,99,101,103,105,107,-1,109,111,113,115,117,-1,119,-1,-1,-1,-1,-1,-1,-1,-1,-1,-1,-1,-1,-1,-1,-1,-1,-1,-1,-1,-1,-1,-1,-1,-1,-1,-1,-1,-1,-1,-1,-1,-1,-1,-1,-1,-1,-1,-1,-1,-1,-1,-1,-1,-1,-1,-1,-1,-1,-1,-1,-1,-1,-1,-1,-1,-1,-1,-1],"loss_changes":[1.8036972E2,1.2632114E2,6.5451416E1,1.1198462E2,1.2095505E1,5.216192E1,2.5744052E2,2.0002962E2,8.922452E1,9.57717E0,6.5749664E0,3.3624546E1,3.0483925E1,1.1663208E1,1.5691637E1,7.023662E1,1.79572E1,6.593901E1,2.490767E1,7.9856324E0,6.4565353E0,7.3245983E0,6.422989E0,7.03381E1,4.223734E1,2.5656586E1,4.9898505E0,4.5938416E0,1.1449274E1,8.195942E0,1.1691399E1,4.5741924E1,3.4020565E1,6.101654E0,6.029892E0,7.4932404E0,6.2464966E1,2.1699326E1,1.6521929E1,5.63618E0,4.4875317E0,9.618982E0,7.105336E0,5.1894703E0,0E0,1.9158936E-1,5.589836E0,2.2431492E1,1.872409E1,4.4153343E1,4.472663E1,2.0337082E1,1.0169533E1,8.124325E0,4.491957E0,0E0,3.729309E0,3.402237E0,2.7850122E0,8.465696E0,7.3341436E0,0E0,7.762808E0,0E0,0E0,0E0,0E0,0E0,0E0,0E0,0E0,0E0,0E0,0E0,0E0,0E0,0E0,0E0,0E0,0E0,0E0,0E0,0E0,0E0,0E0,0E0,0E0,0E0,0E0,0E0,0E0,0E0,0E0,0E0,0E0,0E0,0E0,0E0,0E0,0E0,0E0,0E0,0E0,0E0,0E0,0E0,0E0,0E0,0E0,0E0,0E0,0E0,0E0,0E0,0E0,0E0,0E0,0E0,0E0,0E0,0E0],"parents":[2147483647,0,0,1,1,2,2,3,3,4,4,5,5,6,6,7,7,8,8,9,9,10,10,11,11,12,12,13,13,14,14,15,15,16,16,17,17,18,18,19,19,20,20,21,21,22,22,23,23,24,24,25,25,26,26,27,27,28,28,29,29,30,30,31,31,32,32,33,33,34,34,35,35,36,36,37,37,38,38,39,39,40,40,41,41,42,42,43,43,45,45,46,46,47,47,48,48,49,49,50,50,51,51,52,52,53,53,54,54,56,56,57,57,58,58,59,59,60,60,62,62],"right_children":[2,4,6,8,10,12,14,16,18,20,22,24,26,28,30,32,34,36,38,40,42,44,46,48,50,52,54,56,58,60,62,64,66,68,70,72,74,76,78,80,82,84,86,88,-1,90,92,94,96,98,100,102,104,106,108,-1,110,112,114,116,118,-1,120,-1,-1,-1,-1,-1,-1,-1,-1,-1,-1,-1,-1,-1,-1,-1,-1,-1,-1,-1,-1,-1,-1,-1,-1,-1,-1,-1,-1,-1,-1,-1,-1,-1,-1,-1,-1,-1,-1,-1,-1,-1,-1,-1,-1,-1,-1,-1,-1,-1,-1,-1,-1,-1,-1,-1,-1,-1,-1],"split_conditions":[1.8578492E-1,6.515441E-1,5.995E2,1.3135E3,1.9089144E-1,1.415E2,6.015E2,1.1355E3,5.793702E-1,4.9E1,1.875E2,2.95E1,5.63097E-1,6.005E2,7.795E2,5.804934E-1,4.0279117E-1,4.5E0,4.6066868E-1,2.15E1,5.27E2,1.84E2,3.565E2,1.95E1,1.305E2,4.8585612E-1,1.465E2,2.0880166E-1,4.380725E-1,6.085E2,6.025E2,4.385E2,1.0905E3,5.7677984E-1,1.155E2,1.5085E3,4.1499287E-1,9.35E1,8.7E1,1.15E1,8.85E1,1.09E2,5.445E2,4.35E1,3.792449E-1,6.576E3,3.69E2,3.5E0,2.840249E-1,9.25E1,1.545E2,4.6387362E-1,6.6106E4,1.425E2,5.72E2,1.4044626E-1,4.8728245E-1,9.55E1,2.207E3,6.035E2,5.782007E-1,4.2298713E-1,6.517683E-1,-7.657817E-2,6.4711343E-3,1.6457005E-1,-3.4809017E-1,1.450714E-1,4.7291975E-2,2.9396954E-1,1.9362512E-1,-1.5644713E-1,5.040994E-1,-1.6589148E-2,-7.574028E-2,-2.3836276E-1,-1.23130016E-1,-3.5117275E-1,1.6885307E-1,1.8657997E-1,-2.9125088E-1,-1.51269445E-2,5.5286556E-1,-2.4649549E-1,9.862244E-2,4.0352008E-1,-8.2293496E-2,-3.1379378E-1,-1.2897633E-1,-3.7098268E-1,-2.35709E-1,1.6723794E-1,-2.4306738E-1,4.400502E-1,2.9789137E-2,2.120173E-1,-2.5055173E-1,3.911903E-2,1.760868E-1,-1.2633316E-1,2.1482896E-2,1.3206169E-1,-3.775315E-2,-8.041696E-2,2.3261759E-1,2.099513E-1,-1.0565032E-1,9.651033E-3,2.2347046E-1,-3.7448016E-1,-1.3592884E-1,-2.555663E-2,-2.7338833E-1,-5.7237666E-2,2.9909357E-1,-2.1959136E-1,4.962122E-2,-3.64397E-1,1.19546756E-1,8.921491E-2,-3.235138E-1],"split_indices":[11,7,3,0,8,1,3,0,15,3,3,3,11,3,0,19,5,3,4,3,3,3,3,3,3,19,1,11,12,3,3,0,0,8,1,0,8,1,1,3,1,1,3,3,0,0,3,3,11,3,3,13,0,1,3,0,13,1,0,3,9,0,7,0,0,0,0,0,0,0,0,0,0,0,0,0,0,0,0,0,0,0,0,0,0,0,0,0,0,0,0,0,0,0,0,0,0,0,0,0,0,0,0,0,0,0,0,0,0,0,0,0,0,0,0,0,0,0,0,0,0],"split_type":[0,0,0,0,0,0,0,0,0,0,0,0,0,0,0,0,0,0,0,0,0,0,0,0,0,0,0,0,0,0,0,0,0,0,0,0,0,0,0,0,0,0,0,0,0,0,0,0,0,0,0,0,0,0,0,0,0,0,0,0,0,0,0,0,0,0,0,0,0,0,0,0,0,0,0,0,0,0,0,0,0,0,0,0,0,0,0,0,0,0,0,0,0,0,0,0,0,0,0,0,0,0,0,0,0,0,0,0,0,0,0,0,0,0,0,0,0,0,0,0,0],"sum_hessian":[1.9525451E4,1.1400589E4,8.124863E3,1.1074998E4,3.2559137E2,7.443184E3,6.816786E2,3.277096E3,7.797902E3,8.590934E1,2.39682E2,6.048375E3,1.3948091E3,2.2997919E2,4.5169937E2,2.6278313E3,6.492647E2,7.0174814E3,7.804204E2,1.191552E1,7.399382E1,7.059001E1,1.69092E2,3.0120453E2,5.747171E3,1.1306853E3,2.6412372E2,1.7201855E2,5.7960636E1,7.5298225E1,3.7640115E2,2.392387E3,2.3544426E2,3.9357965E2,2.5568506E2,2.269904E1,6.994782E3,7.411652E2,3.9255207E1,7.049597E0,4.865923E0,5.992769E1,1.40661335E1,6.9361244E1,1.2287644E0,6.721479E1,1.0187721E2,1.5586794E2,1.453366E2,9.554507E2,4.79172E3,1.0402275E3,9.045782E1,7.301541E1,1.911083E2,1.1536477E0,1.7086491E2,5.133307E1,6.6275697E0,6.129021E1,1.4008014E1,8.513844E0,3.678873E2,1.1350309E3,1.2573561E3,2.2407758E2,1.1366691E1,3.2220425E2,7.1375404E1,9.0972145E1,1.647129E2,1.217255E0,2.1481785E1,4.4942324E3,2.5005498E3,2.0497638E2,5.3618884E2,5.5742927E0,3.3680916E1,3.153377E0,3.8962197E0,1.7185334E0,3.1473894E0,5.205738E1,7.8703065E0,2.4544816E0,1.1611652E1,1.9618305E1,4.9742943E1,5.916893E1,8.045863E0,2.4168053E0,9.94604E1,1.2107037E1,1.437609E2,7.614452E0,1.3772214E2,6.3898444E2,3.1646628E2,1.9092755E2,4.6007925E3,9.727492E2,6.747832E1,8.0888855E1,9.568963E0,7.312983E0,6.570242E1,1.8280908E2,8.299235E0,1.6321053E2,7.6543875E0,5.82859E0,4.550448E1,2.934798E0,3.6927717E0,1.2314319E1,4.897589E1,1.0850194E1,3.15782E0,3.6469635E2,3.1909509E0],"tree_param":{"num_deleted":"0","num_feature":"26","num_nodes":"121","size_leaf_vector":"0"}},{"base_weights":[-1.9798351E-2,-1.1239301E-1,4.405418E-2,-6.0024332E-2,-3.3991933E-1,6.431712E-2,-2.2558692E-1,-2.4491252E-2,-5.0089616E-1,1.3555781E0,-3.512752E-1,4.9049977E-2,3.7533617E-1,-9.8348534E-1,1.4378107E-1,8.240782E-2,-1.490089E-1,-6.142696E-1,-1.6804488E-1,1.5844595E0,-1.5540344E-1,-9.316547E-1,-3.2714695E-1,5.8330562E-2,-1.0579426E0,8.230457E-1,-3.2311227E-2,-1.1330912E0,-5.442515E-1,1.5249054E0,1.0597451E-1,1.3156815E-1,-3.095601E-1,7.0297605E-1,-1.6514061E-1,-5.249759E-1,-9.783862E-1,1.1622638E0,-3.2463372E-1,1.7337176E0,3.5861993E-1,-7.130426E-1,-1.2705475E0,-1.3312844E-2,-3.8188305E-1,8.913317E-2,-9.205284E-2,-1.6003933E0,-5.0132215E-1,6.896273E-1,1.4809713E0,-2.1200933E-1,7.421208E-1,-8.976239E-1,-1.3383969E0,-7.0576227E-1,6.2391776E-1,1.7607763E-1,-1.5425791E-1,1.6406319E-1,-3.6050737E-1,2.5509197E-1,-4.1972077E-1,-7.972632E-1,8.0089355E-1,-5.016798E-1,-1.229959E-1,-5.500045E-1,5.562567E-1,-6.302859E-1,-1.1298234E0,2.2225901E-1,1.4083242E0,4.3620092E-1,-4.950137E-1,-3.0399036E-1,-8.69925E-1,-1.4547423E0,-5.897196E-1,-1.2542379E-1,9.4266754E-1,-4.6619317E-1,-2.3283786E-1,1.4280693E-1,-2.3220913E-3,-1.38164E-1,1.5887663E-1,-1.6614383E0,4.195713E-2,1.0988388E0,-7.5429565E-1,5.0957924E-1,1.2144969E0,1.5348111E0,6.913107E-2,-2.0343903E-2,-7.736844E-1,-1.4169122E-1,1.0357077E0,-9.557346E-1,6.691418E-1,-1.1265244E0,-1.5654873E0,-7.521749E-1,8.7181383E-1,1.1199019E0,-7.3370135E-1,9.2782386E-2,3.4710005E-1,-4.1499496E-1,1.8838197E-1],"categories":[],"categories_nodes":[],"categories_segments":[],"categories_sizes":[],"default_left":[1,1,1,1,1,1,1,1,1,1,1,1,1,1,1,1,1,1,1,1,0,1,1,1,1,1,1,1,1,0,1,1,1,1,1,1,1,1,1,0,0,1,1,1,1,1,1,1,1,1,1,1,1,1,1,1,1,1,1,0,0,0,0,0,0,0,0,0,0,0,0,0,0,0,0,0,0,0,0,0,0,0,0,0,0,0,0,0,0,0,0,0,0,0,0,0,0,0,0,0,0,0,0,0,0,0,0,0,0,0,0],"id":4,"left_children":[1,3,5,7,9,11,13,15,17,19,21,23,25,27,29,31,33,35,37,39,-1,41,43,45,47,49,51,53,55,-1,57,59,61,63,65,67,69,71,73,-1,-1,75,77,79,81,83,85,87,89,91,93,95,97,99,101,103,105,107,109,-1,-1,-1,-1,-1,-1,-1,-1,-1,-1,-1,-1,-1,-1,-1,-1,-1,-1,-1,-1,-1,-1,-1,-1,-1,-1,-1,-1,-1,-1,-1,-1,-1,-1,-1,-1,-1,-1,-1,-1,-1,-1,-1,-1,-1,-1,-1,-1,-1,-1,-1,-1],"loss_changes":[1.1431612E2,9.400684E1,6.2540203E1,1.00498924E2,2.8899887E1,5.0526592E1,2.2412122E2,7.9059586E1,1.7953583E1,3.7141056E0,2.02417E1,1.0431531E2,9.09012E1,1.6618896E1,2.7972097E1,6.1625214E1,3.7823826E1,1.1078918E1,2.5989122E1,9.879379E-1,0E0,3.392662E0,2.4219635E1,4.6628365E1,2.4687363E1,1.9812103E1,3.6560383E1,8.212265E0,1.3376463E1,0E0,9.614239E0,4.5479206E1,2.228019E1,8.155769E0,3.8139862E1,8.112915E0,2.9284058E0,2.7323627E0,1.4576852E1,0E0,0E0,2.1451855E0,1.8349152E0,2.2675104E1,1.4980087E1,4.1007393E1,1.9824982E1,4.3103943E0,1.8284515E1,1.8205406E1,2.8692856E0,2.2924797E1,1.2987719E1,9.173904E0,3.1435547E0,5.1005497E0,6.786933E0,5.871932E0,1.0089257E1,0E0,0E0,0E0,0E0,0E0,0E0,0E0,0E0,0E0,0E0,0E0,0E0,0E0,0E0,0E0,0E0,0E0,0E0,0E0,0E0,0E0,0E0,0E0,0E0,0E0,0E0,0E0,0E0,0E0,0E0,0E0,0E0,0E0,0E0,0E0,0E0,0E0,0E0,0E0,0E0,0E0,0E0,0E0,0E0,0E0,0E0,0E0,0E0,0E0,0E0,0E0,0E0],"parents":[2147483647,0,0,1,1,2,2,3,3,4,4,5,5,6,6,7,7,8,8,9,9,10,10,11,11,12,12,13,13,14,14,15,15,16,16,17,17,18,18,19,19,21,21,22,22,23,23,24,24,25,25,26,26,27,27,28,28,30,30,31,31,32,32,33,33,34,34,35,35,36,36,37,37,38,38,41,41,42,42,43,43,44,44,45,45,46,46,47,47,48,48,49,49,50,50,51,51,52,52,53,53,54,54,55,55,56,56,57,57,58,58],"right_children":[2,4,6,8,10,12,14,16,18,20,22,24,26,28,30,32,34,36,38,40,-1,42,44,46,48,50,52,54,56,-1,58,60,62,64,66,68,70,72,74,-1,-1,76,78,80,82,84,86,88,90,92,94,96,98,100,102,104,106,108,110,-1,-1,-1,-1,-1,-1,-1,-1,-1,-1,-1,-1,-1,-1,-1,-1,-1,-1,-1,-1,-1,-1,-1,-1,-1,-1,-1,-1,-1,-1,-1,-1,-1,-1,-1,-1,-1,-1,-1,-1,-1,-1,-1,-1,-1,-1,-1,-1,-1,-1,-1,-1],"split_conditions":[1.065E2,2.9367894E-1,5.995E2,6.1568165E-1,6.5E0,5.725E2,6.015E2,4.4211626E-1,8.75E3,5.453174E-1,2.95E1,5.675E2,5.885E2,6.005E2,6.025E2,5.8630025E-1,7.95E1,4.9549282E-1,8.89E3,3.9795E3,-4.6621032E-2,1.67143E-1,1.31E2,4.04563E-1,5.685E2,4.4432E4,5.975E2,3.5525E3,4.927737E-1,4.5747164E-1,3.3323276E-1,5.249778E-1,1.03E2,6.1E1,8.75E1,6.1E2,1.9915E3,1.41E2,1.865E2,5.201153E-1,1.0758598E-1,9.35E1,4.809833E-1,1.19E2,4.505E2,3.2849854E-1,6.069913E-1,1.674785E5,5.705E2,5.845E2,5.453174E-1,5.965E2,1.0305E3,7.771249E-1,1.225E2,5E-1,4.6314126E-1,1.285E2,4.721E3,4.9218956E-2,-1.0815222E-1,7.6527596E-2,-1.2591624E-1,-2.3917897E-1,2.4026807E-1,-1.5050393E-1,-3.689877E-2,-1.6500135E-1,1.6687702E-1,-1.8908578E-1,-3.3894706E-1,6.6677704E-2,4.224973E-1,1.3086028E-1,-1.4850412E-1,-9.119711E-2,-2.609775E-1,-4.364227E-1,-1.7691588E-1,-3.762714E-2,2.828003E-1,-1.3985796E-1,-6.985136E-2,4.2842083E-2,-6.966274E-4,-4.14492E-2,4.7662992E-2,-4.9843153E-1,1.2587139E-2,3.2965165E-1,-2.262887E-1,1.5287378E-1,3.6434907E-1,4.6044335E-1,2.073932E-2,-6.1031715E-3,-2.3210533E-1,-4.250737E-2,3.1071234E-1,-2.867204E-1,2.0074256E-1,-3.3795735E-1,-4.696462E-1,-2.2565249E-1,2.6154417E-1,3.3597058E-1,-2.2011042E-1,2.7834717E-2,1.0413002E-1,-1.24498494E-1,5.6514595E-2],"split_indices":[1,4,3,15,3,3,3,8,0,13,3,3,3,3,3,7,1,23,0,0,0,5,3,8,3,0,3,0,12,0,5,23,0,3,1,3,0,3,3,0,0,1,13,3,3,23,9,0,3,3,13,3,0,9,1,10,21,1,0,0,0,0,0,0,0,0,0,0,0,0,0,0,0,0,0,0,0,0,0,0,0,0,0,0,0,0,0,0,0,0,0,0,0,0,0,0,0,0,0,0,0,0,0,0,0,0,0,0,0,0,0],"split_type":[0,0,0,0,0,0,0,0,0,0,0,0,0,0,0,0,0,0,0,0,0,0,0,0,0,0,0,0,0,0,0,0,0,0,0,0,0,0,0,0,0,0,0,0,0,0,0,0,0,0,0,0,0,0,0,0,0,0,0,0,0,0,0,0,0,0,0,0,0,0,0,0,0,0,0,0,0,0,0,0,0,0,0,0,0,0,0,0,0,0,0,0,0,0,0,0,0,0,0,0,0,0,0,0,0,0,0,0,0,0,0],"sum_hessian":[1.9333129E4,7.8903354E3,1.1442794E4,6.4150723E3,1.4752633E3,1.0643704E4,7.9908954E2,5.937575E3,4.77497E2,9.027519E0,1.4662357E3,1.0146782E4,4.9692224E2,2.6129047E2,5.377991E2,3.194994E3,2.7425813E3,3.5554742E2,1.21949585E2,7.7977037E0,1.2298152E0,5.7021854E1,1.4092139E3,1.0063362E4,8.34199E1,2.3633838E2,2.6058386E2,1.9372636E2,6.756411E1,1.3281289E1,5.2451776E2,2.8395266E3,3.554671E2,5.0172653E1,2.6924087E3,2.8748752E2,6.80599E1,1.2166454E1,1.0978313E2,6.5819736E0,1.2157302E0,3.6548973E1,2.0472881E1,2.0946596E2,1.1997479E3,8.352874E3,1.7104885E3,4.1298004E1,4.212189E1,1.9819527E2,3.8143112E1,2.120957E2,4.8488144E1,9.2737236E1,1.00989136E2,5.970513E1,7.8589773E0,4.1346045E2,1.1105733E2,2.6642546E3,1.7527197E2,5.7813908E1,2.976532E2,2.636434E0,4.753622E1,2.984317E2,2.3939768E3,2.8146347E2,6.024046E0,2.2197582E1,4.586232E1,2.9188983E0,9.247556E0,1.980105E1,8.998208E1,1.0946077E1,2.5602894E1,1.5218785E1,5.254096E0,1.8825722E2,2.1208738E1,7.649259E2,4.3482202E2,5.263337E3,3.0895369E3,1.4453402E3,2.6514838E2,3.980679E1,1.4912136E0,5.293656E0,3.6828236E1,1.4904027E2,4.9154995E1,3.6658077E1,1.4850357E0,1.5890675E2,5.3188957E1,1.2219629E1,3.6268513E1,8.979671E1,2.940528E0,5.5328773E1,4.566036E1,5.850705E1,1.198081E0,5.884331E0,1.9746462E0,2.7907935E2,1.343811E2,6.294625E1,4.8111076E1],"tree_param":{"num_deleted":"0","num_feature":"26","num_nodes":"111","size_leaf_vector":"0"}},{"base_weights":[-1.4444291E-2,4.099745E-3,-2.4380727E-1,-9.940373E-3,3.0807045E-1,-9.644564E-1,-1.0264876E-2,-2.1102317E-3,-9.425527E-1,1.163632E0,2.0186262E-1,-7.824344E-1,-1.1161717E0,-4.113674E-1,4.582578E-2,1.1963933E0,-5.4661576E-3,-1.3016512E0,-5.2906346E-1,1.9028481E0,9.8475605E-1,1.0687245E-1,8.415967E-1,-8.569141E-1,-2.549742E-1,-1.1589396E0,-6.352461E-1,-5.149449E-1,2.8030828E-1,1.2212476E0,2.414013E-2,1.4686389E0,8.5758454E-1,-2.8532347E-1,9.488605E-3,1.7665772E-1,-1.333264E0,5.868533E-1,-6.7125434E-1,1.0278363E0,-8.3209527E-1,4.4696957E-1,-1.7186686E-1,1.1432999E0,4.0843496E-1,-1.1650009E0,-7.3975146E-1,-5.483612E-1,2.220888E-1,-1.177814E0,-2.6848334E-1,-8.768253E-1,7.2844565E-1,-6.887532E-1,-2.597245E-1,-1.0540987E0,5.076438E-1,1.2684287E0,2.4949372E-1,7.482145E-2,-3.4340456E-1,1.5235113E0,1.6752477E-1,-1.0936012E-1,9.7392774E-1,7.389632E-2,-5.800209E-1,1.8321595E-1,-2.9321378E-2,-9.438833E-1,-1.495952E0,-1.375146E-1,8.668087E-1,-7.9498196E-1,4.445445E-1,1.1653806E0,6.235927E-1,6.505627E-2,1.1372269E0,-4.3854448E-1,2.4960992E-1,1.2512625E0,6.220607E-1,-2.4394445E-1,6.5315384E-1,-1.2324144E0,-5.2026725E-1,-3.189992E-1,-8.6247706E-1,-7.6026237E-1,4.6253106E-1,6.527573E-1,-6.156792E-1,-1.1867652E0,-4.7184622E-1,2.6154307E-1,-8.220312E-1,6.368729E-2,-1.1303875E0,1.4999096E-1,9.2885053E-1,-7.536197E-1,1.806528E-1,-1.364933E-1,-1.3519015E0,7.8404146E-1,-6.1307675E-1,3.9605266E-1,1.3170658E0,1.9651765E-1,-7.85239E-2,-5.260146E-1,8.2259506E-2],"categories":[],"categories_nodes":[],"categories_segments":[],"categories_sizes":[],"default_left":[1,1,1,1,1,1,1,1,1,1,1,1,1,1,1,1,1,1,1,0,1,1,1,1,1,1,1,1,1,1,1,1,1,1,1,0,1,1,1,1,0,1,1,1,1,1,1,1,1,1,1,1,1,1,1,0,1,1,0,1,1,0,0,0,0,0,0,0,0,0,0,0,0,0,0,0,0,0,0,0,0,0,0,0,0,0,0,0,0,0,0,0,0,0,0,0,0,0,0,0,0,0,0,0,0,0,0,0,0,0,0,0,0],"id":5,"left_children":[1,3,5,7,9,11,13,15,17,19,21,23,25,27,29,31,33,35,37,-1,39,41,43,45,47,49,51,53,55,57,59,61,63,65,67,-1,69,71,73,75,-1,77,79,81,83,85,87,89,91,93,95,97,99,101,103,-1,105,107,-1,109,111,-1,-1,-1,-1,-1,-1,-1,-1,-1,-1,-1,-1,-1,-1,-1,-1,-1,-1,-1,-1,-1,-1,-1,-1,-1,-1,-1,-1,-1,-1,-1,-1,-1,-1,-1,-1,-1,-1,-1,-1,-1,-1,-1,-1,-1,-1,-1,-1,-1,-1,-1,-1],"loss_changes":[8.1594894E1,7.5754555E1,2.415029E2,1.23898796E2,7.0975395E1,8.825531E0,2.4424458E1,6.768489E1,2.0286797E1,9.541519E0,4.234722E1,6.1851044E0,3.1554413E0,9.686121E0,2.425204E1,3.0747757E0,7.023319E1,3.7368011E0,1.107971E1,0E0,6.458107E0,5.782814E1,1.1313232E1,4.278679E0,3.1439452E0,2.583664E0,6.458206E0,4.9753475E0,5.9938555E0,4.737873E-1,1.7467915E1,1.5047035E0,2.7320633E0,9.015781E1,1.0741394E2,0E0,3.2420502E0,1.7708895E0,8.664303E0,3.1860886E0,0E0,7.233597E1,3.7821842E1,2.1803894E0,6.316011E0,9.885559E-1,5.1939507E0,3.2773752E0,3.6253211E0,5.058899E-1,1.6457734E0,3.7589169E0,2.3217654E-1,4.0000763E0,6.3669705E0,0E0,5.4523964E0,1.6544724E-1,0E0,1.5387194E1,8.877252E0,0E0,0E0,0E0,0E0,0E0,0E0,0E0,0E0,0E0,0E0,0E0,0E0,0E0,0E0,0E0,0E0,0E0,0E0,0E0,0E0,0E0,0E0,0E0,0E0,0E0,0E0,0E0,0E0,0E0,0E0,0E0,0E0,0E0,0E0,0E0,0E0,0E0,0E0,0E0,0E0,0E0,0E0,0E0,0E0,0E0,0E0,0E0,0E0,0E0,0E0,0E0,0E0],"parents":[2147483647,0,0,1,1,2,2,3,3,4,4,5,5,6,6,7,7,8,8,9,9,10,10,11,11,12,12,13,13,14,14,15,15,16,16,17,17,18,18,20,20,21,21,22,22,23,23,24,24,25,25,26,26,27,27,28,28,29,29,30,30,31,31,32,32,33,33,34,34,36,36,37,37,38,38,39,39,41,41,42,42,43,43,44,44,45,45,46,46,47,47,48,48,49,49,50,50,51,51,52,52,53,53,54,54,56,56,57,57,59,59,60,60],"right_children":[2,4,6,8,10,12,14,16,18,20,22,24,26,28,30,32,34,36,38,-1,40,42,44,46,48,50,52,54,56,58,60,62,64,66,68,-1,70,72,74,76,-1,78,80,82,84,86,88,90,92,94,96,98,100,102,104,-1,106,108,-1,110,112,-1,-1,-1,-1,-1,-1,-1,-1,-1,-1,-1,-1,-1,-1,-1,-1,-1,-1,-1,-1,-1,-1,-1,-1,-1,-1,-1,-1,-1,-1,-1,-1,-1,-1,-1,-1,-1,-1,-1,-1,-1,-1,-1,-1,-1,-1,-1,-1,-1,-1,-1,-1],"split_conditions":[5.995E2,5.725E2,6.005E2,5.675E2,5.745E2,3.7465E3,6.015E2,2.5E0,5.685E2,9.65E1,5.975E2,4.2421797E-1,4.9873963E-1,4.882232E-1,6.025E2,1.075E2,2.95E1,4.1E1,5.705E2,5.708545E-1,6.338676E-1,5.885E2,1.115E2,7.14E2,1.165E2,7.265504E-1,4.1499555E-1,2.852E3,8.9E2,6.0752E-1,3.5731393E-1,2.2183639E-1,1.095E2,1.95E1,1.305E2,5.2997317E-2,5.8937E4,1.08E2,4.021E3,3.8829833E-1,-2.4962859E-1,5.845E2,5.945E2,6.2522507E-1,1.0305E3,5.816878E-1,1.294E3,3.0744028E-1,5.453174E-1,7.3293525E-1,3.9359295E-1,5.484323E-1,9.5487E4,1.47E2,1.395E2,-3.1622964E-1,5.8149195E-1,9.25E1,7.4848115E-2,6.085E2,1.185E2,4.570534E-1,5.0257433E-2,-3.280804E-2,2.9217833E-1,2.2168897E-2,-1.7400628E-1,5.4964785E-2,-8.796413E-3,-2.83165E-1,-4.4878563E-1,-4.1254383E-2,2.6004264E-1,-2.3849459E-1,1.3336335E-1,3.496142E-1,1.870778E-1,1.9516882E-2,3.411681E-1,-1.3156335E-1,7.488298E-2,3.753788E-1,1.8661822E-1,-7.3183335E-2,1.9594616E-1,-3.6972433E-1,-1.5608019E-1,-9.5699765E-2,-2.5874314E-1,-2.2807872E-1,1.3875933E-1,1.958272E-1,-1.8470377E-1,-3.5602957E-1,-1.4155388E-1,7.846292E-2,-2.4660937E-1,1.9106187E-2,-3.3911628E-1,4.499729E-2,2.7865517E-1,-2.2608592E-1,5.419584E-2,-4.094799E-2,-4.0557048E-1,2.3521245E-1,-1.8392304E-1,1.188158E-1,3.9511976E-1,5.8955297E-2,-2.355717E-2,-1.578044E-1,2.4677852E-2],"split_indices":[3,3,3,3,3,0,3,3,3,1,3,13,6,12,3,1,3,1,3,0,18,3,1,0,1,19,5,0,0,5,12,19,1,3,3,0,0,1,0,11,0,3,3,21,0,9,0,11,13,24,11,6,0,1,1,0,7,1,0,3,1,0,0,0,0,0,0,0,0,0,0,0,0,0,0,0,0,0,0,0,0,0,0,0,0,0,0,0,0,0,0,0,0,0,0,0,0,0,0,0,0,0,0,0,0,0,0,0,0,0,0,0,0],"split_type":[0,0,0,0,0,0,0,0,0,0,0,0,0,0,0,0,0,0,0,0,0,0,0,0,0,0,0,0,0,0,0,0,0,0,0,0,0,0,0,0,0,0,0,0,0,0,0,0,0,0,0,0,0,0,0,0,0,0,0,0,0,0,0,0,0,0,0,0,0,0,0,0,0,0,0,0,0,0,0,0,0,0,0,0,0,0,0,0,0,0,0,0,0,0,0,0,0,0,0,0,0,0,0,0,0,0,0,0,0,0,0,0,0],"sum_hessian":[1.91826E4,1.7748605E4,1.4339956E3,1.6965932E4,7.826729E2,3.5021045E2,1.083785E3,1.6825668E4,1.4026474E2,8.533082E1,6.973421E2,1.6200296E2,1.882075E2,1.3218687E2,9.515982E2,4.598928E1,1.6779678E4,7.3920135E1,6.6344604E1,1.4747612E1,7.0583206E1,6.082012E2,8.9140976E1,1.4141055E2,2.05924E1,1.715427E2,1.6664814E1,1.15192474E2,1.6994406E1,1.6236187E1,9.35362E2,2.3650501E1,2.233878E1,8.50256E2,1.5929422E4,1.4515784E0,7.246856E1,7.144805E0,5.91998E1,6.937256E1,1.2106501E0,2.7367706E2,3.3452408E2,5.1577263E1,3.756371E1,3.649669E1,1.04913864E2,1.2658283E1,7.934117E0,1.6766606E2,3.876624E0,1.4460199E1,2.2046156E0,6.7515144E1,4.767733E1,1.9444108E0,1.5049995E1,1.5193219E1,1.0429688E0,8.2271326E2,1.12648796E2,2.252943E1,1.1210712E0,2.4055915E0,1.9933187E1,3.8351804E2,4.6673795E2,2.908083E3,1.3021339E4,2.3360025E1,4.9108536E1,2.1334438E0,5.011361E0,5.3549385E1,5.650411E0,5.0356003E1,1.9016554E1,1.768962E2,9.678086E1,2.0486255E2,1.2966153E2,4.156706E1,1.0010204E1,1.0247843E1,2.7315866E1,3.221661E1,4.2800784E0,2.4503931E1,8.0409935E1,1.066966E1,1.9886234E0,5.386127E0,2.5479898E0,1.6489427E2,2.771792E0,2.2498705E0,1.6267536E0,3.2296438E0,1.1230556E1,1.017143E0,1.1874725E0,6.2951504E1,4.563642E0,4.38542E1,3.8231308E0,1.2313575E1,2.7364213E0,1.285154E0,1.3908065E1,4.585346E2,3.6417862E2,7.866551E1,3.3983284E1],"tree_param":{"num_deleted":"0","num_feature":"26","num_nodes":"113","size_leaf_vector":"0"}},{"base_weights":[-1.066843E-2,-1.4399723E-3,-4.3708503E-1,8.785074E-2,-3.8109675E-2,-5.213866E-1,2.4283455E-1,-3.4761425E-2,3.3176363E-1,4.6453025E-2,-8.947238E-2,-5.726983E-1,1.2975326E-1,4.632397E-1,-9.3241537E-1,1.4031131E-2,-2.4576874E-1,1.9749363E-1,4.472164E-1,1.0238049E-3,4.521043E-1,-5.0412863E-1,-3.87857E-2,-2.7661154E-1,-6.621378E-1,-1.470279E-1,4.6455342E-1,6.1085814E-1,-3.4924608E-1,-1.2025436E0,-4.8724052E-1,-4.9967833E-2,3.9440638E-1,-3.7338042E-1,1.9571313E-1,5.240336E-1,-1.5032154E-2,5.536269E-1,2.8211325E-1,3.9524525E-2,-7.348803E-1,9.29595E-1,3.2275185E-1,-2.7730218E-1,-1.5350456E0,5.7698053E-1,-5.241629E-2,2.8345025E-1,-5.3081506E-1,-9.555983E-1,-5.7851243E-1,1.0699669E-1,-8.636225E-1,1.075991E0,2.2425847E-1,7.52831E-1,-1.3123061E-1,-8.1973475E-1,9.570869E-1,-5.6530643E-2,-7.225659E-1,-6.896787E-2,6.30799E-1,4.4028747E-1,-1.2841204E0,-2.571736E-1,-5.302738E-1,9.50632E-2,4.2596117E-1,5.4620373E-1,-7.6323146E-1,-8.547139E-1,8.202853E-2,7.239006E-1,4.6939257E-1,1.5571654E-1,4.6062616E-1,-1.0241573E-1,1.118534E-1,-8.722358E-1,6.943189E-2,4.075446E-1,1.2519678E0,1.0537396E-1,5.637138E-1,-8.044362E-1,-3.643477E-2,-1.6199792E-2,-1.5605528E0,6.987353E-1,-6.788484E-1,-9.0141636E-1,-3.1433932E-2,-2.757228E-1,6.7627335E-1,-2.9705027E-1,-8.874047E-1,-1.0682676E0,-3.9621288E-1,-2.1571617E-1,-6.4090383E-1,5.038341E-1,-3.8044798E-1,-7.040269E-1,5.418814E-1,5.62079E-1,1.4431968E0,1.20501444E-1,-6.25863E-1,-7.897231E-2,-1.0824188E0],"categories":[],"categories_nodes":[],"categories_segments":[],"categories_sizes":[],"default_left":[1,1,1,1,1,1,1,1,1,1,1,1,1,1,1,1,1,1,1,1,1,1,1,1,1,1,1,1,1,0,1,1,1,1,1,1,1,1,1,1,1,1,1,1,1,1,1,1,1,1,1,1,0,0,1,1,1,1,0,0,0,0,0,0,0,0,0,0,0,0,0,0,0,0,0,0,0,0,0,0,0,0,0,0,0,0,0,0,0,0,0,0,0,0,0,0,0,0,0,0,0,0,0,0,0,0,0,0,0,0,0],"id":6,"left_children":[1,3,5,7,9,11,13,15,17,19,21,23,25,27,29,31,33,35,37,39,41,43,45,47,49,51,53,55,57,-1,59,61,63,65,67,69,71,73,75,77,79,81,83,85,87,89,91,93,95,97,99,101,-1,-1,103,105,107,109,-1,-1,-1,-1,-1,-1,-1,-1,-1,-1,-1,-1,-1,-1,-1,-1,-1,-1,-1,-1,-1,-1,-1,-1,-1,-1,-1,-1,-1,-1,-1,-1,-1,-1,-1,-1,-1,-1,-1,-1,-1,-1,-1,-1,-1,-1,-1,-1,-1,-1,-1,-1,-1],"loss_changes":[7.5036835E1,6.111911E1,2.3279282E1,1.62531E2,5.7476837E1,1.2091972E1,1.215053E1,3.7245014E1,2.809375E1,9.215631E1,1.7300711E2,8.651245E0,2.578588E0,4.862583E0,3.131342E-1,7.15616E1,3.8349316E1,5.8461052E1,1.7003082E1,1.27474625E2,3.0806961E1,2.0924065E2,6.1610386E1,1.1413448E1,5.7171097E0,2.9301653E0,1.5952966E0,3.5932064E0,4.8387227E0,0E0,4.1571975E-1,3.259303E1,3.3169815E1,9.479195E0,3.5052595E0,9.894554E0,4.1732048E1,8.163727E0,8.611168E0,4.3905087E1,2.4772415E1,1.7467316E1,2.0778122E1,9.343863E1,6.2307434E0,2.478207E1,1.2785648E2,5.7545977E0,4.301214E0,3.051052E0,4.419731E0,2.5901234E0,0E0,0E0,3.3997893E0,2.87471E0,8.446678E-1,9.6300507E-1,0E0,0E0,0E0,0E0,0E0,0E0,0E0,0E0,0E0,0E0,0E0,0E0,0E0,0E0,0E0,0E0,0E0,0E0,0E0,0E0,0E0,0E0,0E0,0E0,0E0,0E0,0E0,0E0,0E0,0E0,0E0,0E0,0E0,0E0,0E0,0E0,0E0,0E0,0E0,0E0,0E0,0E0,0E0,0E0,0E0,0E0,0E0,0E0,0E0,0E0,0E0,0E0,0E0],"parents":[2147483647,0,0,1,1,2,2,3,3,4,4,5,5,6,6,7,7,8,8,9,9,10,10,11,11,12,12,13,13,14,14,15,15,16,16,17,17,18,18,19,19,20,20,21,21,22,22,23,23,24,24,25,25,26,26,27,27,28,28,30,30,31,31,32,32,33,33,34,34,35,35,36,36,37,37,38,38,39,39,40,40,41,41,42,42,43,43,44,44,45,45,46,46,47,47,48,48,49,49,50,50,51,51,54,54,55,55,56,56,57,57],"right_children":[2,4,6,8,10,12,14,16,18,20,22,24,26,28,30,32,34,36,38,40,42,44,46,48,50,52,54,56,58,-1,60,62,64,66,68,70,72,74,76,78,80,82,84,86,88,90,92,94,96,98,100,102,-1,-1,104,106,108,110,-1,-1,-1,-1,-1,-1,-1,-1,-1,-1,-1,-1,-1,-1,-1,-1,-1,-1,-1,-1,-1,-1,-1,-1,-1,-1,-1,-1,-1,-1,-1,-1,-1,-1,-1,-1,-1,-1,-1,-1,-1,-1,-1,-1,-1,-1,-1,-1,-1,-1,-1,-1,-1],"split_conditions":[6.515441E-1,1.3095E3,4.5874676E-1,8.55E2,2.685E2,3.674126E-1,5.605E2,4.333439E-1,1.1915E3,2.385E2,2.995E2,1.415E2,3.24E2,9.645E2,5.94E2,5.286935E-1,1.355E2,9.745E2,1.2485E3,2.3E2,2.475E2,2.985E2,3.065E2,6.891843E-1,5.815E2,2.61E2,3.85E2,9.85E1,1.145E2,-3.607631E-1,2.515E2,5.472323E-1,5.355332E-1,3.805E2,3.0869952E-1,5.8201504E-1,1.0275E3,1.16E2,3.74E2,6.95E1,2.345E2,4.1145E3,2.505E2,2.755E2,7.75E1,4.1935384E-1,3.095E2,9.55E1,1.025E2,5.27E2,9.955E2,3.385E3,-2.5908676E-1,3.2279733E-1,4.76E2,5.7E1,4.67E2,1.2795E3,2.871261E-1,-1.6959194E-2,-2.1676977E-1,-2.0690363E-2,1.8923971E-1,1.3208625E-1,-3.8523614E-1,-7.715208E-2,-1.5908214E-1,2.8518962E-2,1.2778835E-1,1.6386113E-1,-2.2896944E-1,-2.5641418E-1,2.460856E-2,2.171702E-1,1.4081778E-1,4.671496E-2,1.3818786E-1,-3.0724721E-2,3.355602E-2,-2.6167074E-1,2.082957E-2,1.2226339E-1,3.7559035E-1,3.161219E-2,1.6911414E-1,-2.4133088E-1,-1.0930431E-2,-4.859938E-3,-4.6816587E-1,2.096206E-1,-2.0365453E-1,-2.7042493E-1,-9.43018E-3,-8.2716845E-2,2.02882E-1,-8.911508E-2,-2.662214E-1,-3.204803E-1,-1.18863866E-1,-6.471486E-2,-1.9227116E-1,1.5115024E-1,-1.141344E-1,-2.1120808E-1,1.6256443E-1,1.6862372E-1,4.3295905E-1,3.6150433E-2,-1.8775891E-1,-2.3691693E-2,-3.2472566E-1],"split_indices":[7,0,11,0,3,6,3,4,0,3,3,3,3,0,3,9,1,0,0,3,3,3,3,7,0,3,3,1,1,0,0,6,8,0,13,13,0,1,3,3,3,0,3,3,1,12,3,1,1,3,0,0,0,0,3,0,3,0,0,0,0,0,0,0,0,0,0,0,0,0,0,0,0,0,0,0,0,0,0,0,0,0,0,0,0,0,0,0,0,0,0,0,0,0,0,0,0,0,0,0,0,0,0,0,0,0,0,0,0,0,0],"split_type":[0,0,0,0,0,0,0,0,0,0,0,0,0,0,0,0,0,0,0,0,0,0,0,0,0,0,0,0,0,0,0,0,0,0,0,0,0,0,0,0,0,0,0,0,0,0,0,0,0,0,0,0,0,0,0,0,0,0,0,0,0,0,0,0,0,0,0,0,0,0,0,0,0,0,0,0,0,0,0,0,0,0,0,0,0,0,0,0,0,0,0,0,0,0,0,0,0,0,0,0,0,0,0,0,0,0,0,0,0,0,0],"sum_hessian":[1.906743E4,1.8664498E4,4.0293143E2,5.4332183E3,1.323128E4,3.586913E2,4.4240112E1,3.616236E3,1.8169822E3,4.999796E3,8.231484E3,3.3260184E2,2.6089497E1,3.776377E1,6.4763412E0,2.9378352E3,6.7840076E2,8.4128705E2,9.7569507E2,4.497158E3,5.026379E2,8.956259E2,7.3358584E3,7.8110855E1,2.5449097E2,1.4589294E1,1.1500202E1,3.2167503E1,5.5962687E0,2.9717965E0,3.5045445E0,2.5154705E3,4.2236478E2,5.263981E2,1.520027E2,3.3109814E2,5.101889E2,5.918738E2,3.8382132E2,4.274474E3,2.2268385E2,1.0582175E2,3.9681616E2,7.351453E2,1.6048062E2,1.5797466E2,7.1778833E3,2.4349323E1,5.3761536E1,5.4125423E1,2.0036554E2,1.1399122E1,3.1901715E0,2.2633214E0,9.236881E0,2.6989521E1,5.177982E0,4.3882785E0,1.2079898E0,1.6764342E0,1.8281102E0,2.448045E3,6.7425644E1,4.1184503E2,1.0519734E1,3.0392667E2,2.2247139E2,1.0675084E2,4.525187E1,3.2605826E2,5.0398912E0,5.205447E1,4.5813446E2,1.9337857E2,3.9849518E2,2.2580882E2,1.580125E2,1.4427548E3,2.8317195E3,1.9013014E2,3.25537E1,4.1263638E1,6.455811E1,2.0937288E2,1.874433E2,2.2982896E2,5.0531635E2,2.677573E0,1.5780304E2,1.4441681E2,1.3557852E1,1.721052E2,7.0057783E3,1.017029E1,1.4179032E1,3.358058E1,2.0180952E1,4.4294147E1,9.831276E0,3.0055433E1,1.703101E2,6.2650275E0,5.1340947E0,2.0446458E0,7.192235E0,2.2568024E1,4.421498E0,3.9328356E0,1.2451465E0,1.4892547E0,2.899024E0],"tree_param":{"num_deleted":"0","num_feature":"26","num_nodes":"111","size_leaf_vector":"0"}},{"base_weights":[-7.871726E-3,-3.1385265E-2,1.1329864E-1,-4.2502593E-2,2.0423026E-1,2.1828498E-1,-4.352894E-2,-5.5003423E-2,1.6682695E-1,-4.3816957E-1,2.2744435E-1,2.9236415E-1,1.0824613E-1,-2.4353077E-1,8.093395E-2,-4.1889474E-2,-3.0481485E-1,1.24860846E-1,5.723835E-1,-8.8985765E-1,5.3984463E-1,1.4956029E-1,5.325146E-1,3.2209104E-1,-5.6792396E-1,1.686722E-1,-2.0560795E-1,-2.0282541E-1,-8.562055E-1,-2.1556759E-1,2.0926039E-1,-4.7919948E-2,3.421873E-1,-3.7037438E-1,1.5181372E-1,7.880116E-1,1.09558545E-1,2.2298262E-1,9.7062296E-1,-1.3422505E0,-5.673905E-1,8.028174E-1,-5.9131026E-1,-6.8058E-2,2.2354484E-1,1.0624437E0,4.3334192E-1,3.7732238E-1,4.1988987E-2,-6.7887235E-1,9.040716E-2,2.702321E-1,1.5110561E-2,-4.8388994E-1,2.162345E-1,-2.3854572E-1,4.6751577E-1,-9.876877E-1,-2.5504836E-1,8.6115277E-1,-3.201215E-1,5.07263E-1,1.4834166E-1,8.639295E-3,-8.827226E-2,4.9068072E-1,-3.701726E-2,-9.414982E-1,-2.8377748E-1,1.136157E0,5.0261583E-2,9.790337E-1,-1.396325E-1,3.927842E-1,7.686649E-2,3.7956437E-1,-3.934257E-1,1.771382E-1,1.0878233E0,-9.5471025E-1,-3.1793058E-1,1.6108736E-1,8.982331E-1,6.774167E-2,-4.1039035E-1,3.5101297E-1,1.2937343E-1,1.09590344E-1,1.1415309E0,-2.871177E-1,4.8997816E-1,-2.558941E-1,4.131018E-1,3.9556578E-1,-6.5480685E-1,-2.7486214E-1,-9.643858E-1,6.5540236E-1,-6.166113E-1,1.9136085E-1,7.500518E-1,-2.460701E-1,2.198071E-1,-8.955528E-1,-3.598159E-1,-7.739408E-1,3.3327508E-1,-1.7848743E-1,-5.8156866E-1,1.1659884E0,2.1308456E-1,-2.678802E-1,-1.0130087E0,-8.861844E-1,1.4709105E-1,1.0683382E0,-7.4404895E-1,-1.6869298E-1,-6.63104E-1,-9.1953886E-1,6.1685944E-1,-3.2655698E-1,2.5939068E-1],"categories":[],"categories_nodes":[],"categories_segments":[],"categories_sizes":[],"default_left":[1,1,1,1,1,1,1,1,1,1,1,1,1,1,1,1,1,1,1,1,1,1,1,1,1,1,1,1,1,1,1,1,1,1,1,1,1,1,1,0,1,1,0,1,1,1,1,1,1,1,1,1,1,1,1,1,1,1,1,1,1,1,1,0,0,0,0,0,0,0,0,0,0,0,0,0,0,0,0,0,0,0,0,0,0,0,0,0,0,0,0,0,0,0,0,0,0,0,0,0,0,0,0,0,0,0,0,0,0,0,0,0,0,0,0,0,0,0,0,0,0,0,0],"id":7,"left_children":[1,3,5,7,9,11,13,15,17,19,21,23,25,27,29,31,33,35,37,39,41,43,45,47,49,51,53,55,57,59,61,63,65,67,69,71,73,75,77,-1,79,81,-1,83,85,87,89,91,93,95,97,99,101,103,105,107,109,111,113,115,117,119,121,-1,-1,-1,-1,-1,-1,-1,-1,-1,-1,-1,-1,-1,-1,-1,-1,-1,-1,-1,-1,-1,-1,-1,-1,-1,-1,-1,-1,-1,-1,-1,-1,-1,-1,-1,-1,-1,-1,-1,-1,-1,-1,-1,-1,-1,-1,-1,-1,-1,-1,-1,-1,-1,-1,-1,-1,-1,-1,-1,-1],"loss_changes":[5.3920635E1,4.1524525E1,5.064973E1,3.9616867E1,1.0751986E1,1.4987709E1,3.0741587E1,4.678104E1,1.4449793E1,1.1636603E1,1.63162E1,2.8329185E1,1.4124013E1,1.1639248E1,2.9019335E1,3.1452526E1,2.1379097E1,7.772846E0,1.0877586E1,1.8136978E0,3.0331924E0,8.888238E0,6.894661E0,1.6451965E1,2.772812E0,9.720188E0,1.4237492E1,1.0778215E1,2.0560246E0,2.622607E1,9.582323E0,3.0500357E1,1.183938E1,3.0551788E1,8.952843E0,3.2034435E0,6.9898815E0,4.3736725E0,3.2446976E0,0E0,8.596711E-1,3.085842E-1,0E0,6.5637074E0,4.894352E0,1.4855633E0,5.0199547E0,2.0247498E1,4.3731117E1,3.4129686E0,2.8953276E0,1.4057375E1,1.3380956E1,3.398573E0,5.88369E0,8.622845E0,3.8166656E0,1.5896797E-1,1.8024877E0,7.67048E0,1.0838715E1,1.4621748E1,2.3452663E1,0E0,0E0,0E0,0E0,0E0,0E0,0E0,0E0,0E0,0E0,0E0,0E0,0E0,0E0,0E0,0E0,0E0,0E0,0E0,0E0,0E0,0E0,0E0,0E0,0E0,0E0,0E0,0E0,0E0,0E0,0E0,0E0,0E0,0E0,0E0,0E0,0E0,0E0,0E0,0E0,0E0,0E0,0E0,0E0,0E0,0E0,0E0,0E0,0E0,0E0,0E0,0E0,0E0,0E0,0E0,0E0,0E0,0E0,0E0,0E0],"parents":[2147483647,0,0,1,1,2,2,3,3,4,4,5,5,6,6,7,7,8,8,9,9,10,10,11,11,12,12,13,13,14,14,15,15,16,16,17,17,18,18,19,19,20,20,21,21,22,22,23,23,24,24,25,25,26,26,27,27,28,28,29,29,30,30,31,31,32,32,33,33,34,34,35,35,36,36,37,37,38,38,40,40,41,41,43,43,44,44,45,45,46,46,47,47,48,48,49,49,50,50,51,51,52,52,53,53,54,54,55,55,56,56,57,57,58,58,59,59,60,60,61,61,62,62],"right_children":[2,4,6,8,10,12,14,16,18,20,22,24,26,28,30,32,34,36,38,40,42,44,46,48,50,52,54,56,58,60,62,64,66,68,70,72,74,76,78,-1,80,82,-1,84,86,88,90,92,94,96,98,100,102,104,106,108,110,112,114,116,118,120,122,-1,-1,-1,-1,-1,-1,-1,-1,-1,-1,-1,-1,-1,-1,-1,-1,-1,-1,-1,-1,-1,-1,-1,-1,-1,-1,-1,-1,-1,-1,-1,-1,-1,-1,-1,-1,-1,-1,-1,-1,-1,-1,-1,-1,-1,-1,-1,-1,-1,-1,-1,-1,-1,-1,-1,-1,-1,-1,-1,-1],"split_conditions":[2.75867E-1,7.191858E-1,2.8848267E-1,5.0966877E-1,9.15E1,4.018E3,2.16E3,4.6911973E-1,4.934215E-1,1.128E3,1.7489035E-1,6.0626626E-1,4.6779436E-1,2.0005E3,1.065E2,7.70989E-1,6.2121964E-1,2.25E1,1.125E2,2.1968774E-1,6.371E3,3.720116E-1,9.7E1,4.1334015E-1,2.761E3,3.865E2,6.52225E4,1.9355E3,1.29E2,8.2E1,3.3635E3,2.865E2,4.635E2,5.507972E-1,4.85E1,4.345E2,8.165E2,3.6228824E-1,7.85E1,-4.0267515E-1,1.42E2,1.22E2,-1.7739308E-1,4.69E2,1.2525E3,8.7E1,4.25E1,8.95E1,1.135E2,5.67E2,3.7125E3,3.295E2,4.77E2,4.312E3,8.2E1,1.313E3,1.415E2,1.95E1,1.655E2,5.99E2,1.025E2,4.232512E-1,5.514E3,2.5917885E-3,-2.6481679E-2,1.4720422E-1,-1.1105178E-2,-2.8244948E-1,-8.513325E-2,3.4084713E-1,1.5078476E-2,2.937101E-1,-4.188975E-2,1.1783527E-1,2.305995E-2,1.1386932E-1,-1.1802772E-1,5.314146E-2,3.26347E-1,-2.8641307E-1,-9.537918E-2,4.8326213E-2,2.6946995E-1,2.0322502E-2,-1.2311711E-1,1.053039E-1,3.881203E-2,3.2877106E-2,3.4245926E-1,-8.613531E-2,1.4699346E-1,-7.6768234E-2,1.2393054E-1,1.1866974E-1,-1.9644207E-1,-8.2458645E-2,-2.8931576E-1,1.9662072E-1,-1.849834E-1,5.7408255E-2,2.2501555E-1,-7.382103E-2,6.594213E-2,-2.6866585E-1,-1.0794477E-1,-2.3218225E-1,9.998253E-2,-5.354623E-2,-1.744706E-1,3.4979653E-1,6.392537E-2,-8.036406E-2,-3.0390263E-1,-2.6585534E-1,4.4127315E-2,3.2050145E-1,-2.232147E-1,-5.0607894E-2,-1.989312E-1,-2.7586168E-1,1.8505783E-1,-9.7967096E-2,7.781721E-2],"split_indices":[9,24,4,6,1,0,0,7,12,0,8,23,8,0,1,10,18,1,1,4,0,11,1,19,0,3,0,0,1,1,0,3,3,7,3,3,0,8,3,0,3,3,0,3,0,3,3,1,1,0,0,3,3,0,3,0,3,3,3,3,1,4,0,0,0,0,0,0,0,0,0,0,0,0,0,0,0,0,0,0,0,0,0,0,0,0,0,0,0,0,0,0,0,0,0,0,0,0,0,0,0,0,0,0,0,0,0,0,0,0,0,0,0,0,0,0,0,0,0,0,0,0,0],"split_type":[0,0,0,0,0,0,0,0,0,0,0,0,0,0,0,0,0,0,0,0,0,0,0,0,0,0,0,0,0,0,0,0,0,0,0,0,0,0,0,0,0,0,0,0,0,0,0,0,0,0,0,0,0,0,0,0,0,0,0,0,0,0,0,0,0,0,0,0,0,0,0,0,0,0,0,0,0,0,0,0,0,0,0,0,0,0,0,0,0,0,0,0,0,0,0,0,0,0,0,0,0,0,0,0,0,0,0,0,0,0,0,0,0,0,0,0,0,0,0,0,0,0,0],"sum_hessian":[1.8922955E4,1.5848281E4,3.0746746E3,1.513497E4,7.133116E2,1.8415074E3,1.233167E3,1.4282763E4,8.5220667E2,2.4254179E1,6.8905743E2,1.099594E3,7.419135E2,4.7266916E2,7.6049786E2,1.3571489E4,7.112731E2,7.7347687E2,7.872981E1,1.665318E1,7.6009994E0,5.501062E2,1.389512E2,1.0634717E3,3.6122227E1,6.2252234E2,1.1939115E2,4.4447015E2,2.8199005E1,2.2951584E2,5.3098206E2,1.3362557E4,2.0893327E2,6.2213947E2,8.9133575E1,1.6306599E1,7.571703E2,4.2767273E1,3.596254E1,5.6143303E0,1.1038849E1,6.402746E0,1.1982534E0,1.3959155E2,4.1051468E2,2.037332E1,1.1857789E2,8.880219E2,1.7544983E2,3.0885841E1,5.236386E0,3.742486E2,2.4827376E2,7.184753E1,4.754363E1,4.2259555E2,2.1874603E1,2.261072E1,5.588286E0,1.9673824E1,2.0984201E2,8.8878555E1,4.4210352E2,5.5642666E3,7.79829E3,1.499285E2,5.900477E1,8.061241E1,5.4152704E2,7.3829384E0,8.175063E1,1.3476166E1,2.8304338E0,7.721429E1,6.79956E2,3.4410465E1,8.35681E0,4.951393E0,3.1011145E1,3.2169683E0,7.8218803E0,1.1767359E0,5.2260103E0,1.0051888E2,3.9072674E1,1.7326286E2,2.3725182E2,1.7442325E0,1.8629086E1,8.345593E0,1.1023229E2,4.716441E1,8.408575E2,1.1667663E2,5.8773197E1,1.36017065E1,1.7284136E1,2.9510987E0,2.2852874E0,3.2261667E2,5.163192E1,1.08997406E2,1.3927635E2,1.5199502E1,5.664802E1,4.4324083E0,4.311122E1,3.609235E2,6.167206E1,4.8840437E0,1.6990559E1,1.1618503E0,2.144887E1,1.7064425E0,3.8818433E0,1.7721004E1,1.9528193E0,1.4660638E2,6.323563E1,5.8128343E0,8.306572E1,8.341982E1,3.586837E2],"tree_param":{"num_deleted":"0","num_feature":"26","num_nodes":"123","size_leaf_vector":"0"}},{"base_weights":[-5.5375984E-3,-9.4449585E-3,5.667491E-1,-5.7603117E-2,3.564621E-2,7.350265E-1,1.2734595E-1,6.9929457E-1,-6.240978E-2,2.9742599E-2,4.1441524E-1,1.9710944E-3,8.4047866E-1,3.2882655E-1,-5.119408E-1,9.130069E-1,-3.0645864E-2,-4.7173205E-1,-5.2552946E-2,4.1837413E-2,-1.2236578E-1,8.074654E-2,4.9505326E-1,7.736814E-1,-3.098239E-1,-4.4898275E-1,8.906971E-1,-2.4280083E-1,7.714554E-1,-1.5057964E-3,-9.3622994E-1,9.9177045E-1,-3.56521E-1,-2.0931533E-1,1.0120999E0,-7.681938E-2,-1.109109E0,-2.7746083E-3,-1.23226725E-1,3.870334E-2,1.1688691E0,-5.29013E-1,1.1146994E-1,3.4480023E-1,-4.7946236E-1,7.4375904E-1,3.8301593E-1,1.06979E0,1.5939224E-1,-9.069761E-2,-1.0084985E0,-5.9668403E-2,-6.1810297E-1,1.2144684E0,7.3573625E-1,2.6282877E-1,-7.0693344E-1,1.0856037E0,6.343509E-2,9.0296054E-1,-5.5257463E-1,-1.1727371E0,-2.5894722E-1,1.0396416E0,1.1832258E-2,1.0281177E-1,-6.351392E-1,-1.0245643E0,3.6305428E-2,-1.8740469E-1,3.9504522E-1,-1.137728E0,3.185261E-1,2.2219315E-2,-3.032985E-1,-9.545953E-2,-6.0640067E-1,2.1593554E-2,1.8046133E-1,1.6876839E0,-1.2275364E0,-1.9224097E-1,-6.814243E-1,-9.215104E-3,3.2190293E-1,-2.8269053E-3,9.9177617E-1,-8.128209E-1,9.2703E-1,5.5935067E-1,1.1828064E0,-2.961371E-1,4.4092396E-1,2.2940423E-1,-3.1906283E-1,1.4028885E0,7.7896756E-1,5.0859693E-2,8.4497386E-1,-2.6815224E-1,5.9544706E-1,-1.0883353E0,-6.974352E-2,1.2032053E0,1.5244642E-1,-7.6681274E-1,5.5211294E-1],"categories":[],"categories_nodes":[],"categories_segments":[],"categories_sizes":[],"default_left":[1,1,1,1,1,1,1,1,1,1,1,1,1,1,1,1,1,1,1,1,1,1,1,1,1,1,1,1,1,1,1,1,1,1,0,1,1,1,1,1,1,1,1,1,1,1,1,0,0,1,0,0,0,1,1,1,1,1,1,0,0,0,0,0,0,0,0,0,0,0,0,0,0,0,0,0,0,0,0,0,0,0,0,0,0,0,0,0,0,0,0,0,0,0,0,0,0,0,0,0,0,0,0,0,0,0,0],"id":8,"left_children":[1,3,5,7,9,11,13,15,17,19,21,23,25,27,29,31,33,35,37,39,41,43,45,47,49,51,53,55,57,59,61,63,65,67,-1,69,71,73,75,77,79,81,83,85,87,89,91,-1,-1,93,-1,-1,-1,95,97,99,101,103,105,-1,-1,-1,-1,-1,-1,-1,-1,-1,-1,-1,-1,-1,-1,-1,-1,-1,-1,-1,-1,-1,-1,-1,-1,-1,-1,-1,-1,-1,-1,-1,-1,-1,-1,-1,-1,-1,-1,-1,-1,-1,-1,-1,-1,-1,-1,-1,-1],"loss_changes":[4.211807E1,4.0622555E1,9.350819E0,3.2953728E1,2.1591377E1,7.121628E0,4.8799496E0,8.945524E0,3.6245087E1,1.7508446E1,3.9474373E0,3.2693174E0,5.6163826E0,7.378786E0,1.9817467E0,4.7783546E0,2.804088E0,5.3091427E1,3.0885769E1,3.1087818E1,6.672004E1,4.6088123E0,3.0353603E0,5.405569E-1,1.3908069E0,2.057153E-1,3.0135002E0,3.2752333E0,3.5473394E0,3.0699003E0,4.9705267E-1,1.9546852E0,4.9026468E-1,2.5816987E0,0E0,6.9367404E0,3.6614685E0,3.8706482E1,4.861906E1,2.13174E1,3.2418095E1,1.301506E1,1.1327656E1,4.725276E0,5.4615264E0,2.2486706E0,3.4424868E0,0E0,0E0,6.92289E-1,0E0,0E0,0E0,8.4946823E-1,4.086994E0,1.4011889E0,1.6580634E0,1.0456114E0,2.881557E0,0E0,0E0,0E0,0E0,0E0,0E0,0E0,0E0,0E0,0E0,0E0,0E0,0E0,0E0,0E0,0E0,0E0,0E0,0E0,0E0,0E0,0E0,0E0,0E0,0E0,0E0,0E0,0E0,0E0,0E0,0E0,0E0,0E0,0E0,0E0,0E0,0E0,0E0,0E0,0E0,0E0,0E0,0E0,0E0,0E0,0E0,0E0,0E0],"parents":[2147483647,0,0,1,1,2,2,3,3,4,4,5,5,6,6,7,7,8,8,9,9,10,10,11,11,12,12,13,13,14,14,15,15,16,16,17,17,18,18,19,19,20,20,21,21,22,22,23,23,24,24,25,25,26,26,27,27,28,28,29,29,30,30,31,31,32,32,33,33,35,35,36,36,37,37,38,38,39,39,40,40,41,41,42,42,43,43,44,44,45,45,46,46,49,49,53,53,54,54,55,55,56,56,57,57,58,58],"right_children":[2,4,6,8,10,12,14,16,18,20,22,24,26,28,30,32,34,36,38,40,42,44,46,48,50,52,54,56,58,60,62,64,66,68,-1,70,72,74,76,78,80,82,84,86,88,90,92,-1,-1,94,-1,-1,-1,96,98,100,102,104,106,-1,-1,-1,-1,-1,-1,-1,-1,-1,-1,-1,-1,-1,-1,-1,-1,-1,-1,-1,-1,-1,-1,-1,-1,-1,-1,-1,-1,-1,-1,-1,-1,-1,-1,-1,-1,-1,-1,-1,-1,-1,-1,-1,-1,-1,-1,-1,-1],"split_conditions":[5.929944E-1,1.105E2,4.725E2,6.5E0,7.727374E-1,5.15E1,1.135E2,4.3987355E-1,2.05E1,5.965E2,1.225E2,1.02E2,2.555E2,1.005E2,6.066955E-1,6.225079E-1,5.5E0,1.95E1,4.0295E3,5.945E2,6.015E2,7.55E1,2.67E2,2.196E3,1.6825E3,2.805E2,1.035E2,9.86477E-2,3.0914384E-1,5.165E2,2.5230217E-1,5.640362E-1,9.45E1,2.83E2,3.0362996E-1,3.8965565E-1,7.573533E-1,4.719655E-1,5.442745E-1,5.185E2,2.768415E-1,5.995E2,4.7915E3,5.7E1,1.6393E4,2.215E2,2.955E2,3.20937E-1,4.7817674E-2,1.95E1,-3.0254957E-1,-1.7900521E-2,-1.854309E-1,1.8577245E-1,1.065E2,9.275E2,2.1396618E-1,8.0965E3,4.96E2,2.7088818E-1,-1.657724E-1,-3.5182115E-1,-7.768417E-2,3.118925E-1,3.5496776E-3,3.0843532E-2,-1.9054177E-1,-3.073693E-1,1.0891628E-2,-5.622141E-2,1.1851357E-1,-3.413184E-1,9.555783E-2,6.6657946E-3,-9.098955E-2,-2.863786E-2,-1.819202E-1,6.4780666E-3,5.4138403E-2,5.063052E-1,-3.6826095E-1,-5.7672292E-2,-2.044273E-1,-2.7645314E-3,9.657089E-2,-8.4807165E-4,2.9753286E-1,-2.4384628E-1,2.78109E-1,1.6780521E-1,3.5484192E-1,-8.884113E-2,1.3227719E-1,6.8821274E-2,-9.571885E-2,4.2086658E-1,2.3369028E-1,1.5257909E-2,2.5349218E-1,-8.044568E-2,1.7863412E-1,-3.265006E-1,-2.0923058E-2,3.6096162E-1,4.573393E-2,-2.3004383E-1,1.6563389E-1],"split_indices":[14,1,3,3,19,3,1,11,3,3,3,1,0,1,14,7,3,3,0,3,3,3,3,0,0,3,1,11,9,3,23,6,1,0,0,23,12,4,12,3,15,3,0,3,0,3,3,0,0,3,0,0,0,19,1,0,11,0,3,0,0,0,0,0,0,0,0,0,0,0,0,0,0,0,0,0,0,0,0,0,0,0,0,0,0,0,0,0,0,0,0,0,0,0,0,0,0,0,0,0,0,0,0,0,0,0,0],"split_type":[0,0,0,0,0,0,0,0,0,0,0,0,0,0,0,0,0,0,0,0,0,0,0,0,0,0,0,0,0,0,0,0,0,0,0,0,0,0,0,0,0,0,0,0,0,0,0,0,0,0,0,0,0,0,0,0,0,0,0,0,0,0,0,0,0,0,0,0,0,0,0,0,0,0,0,0,0,0,0,0,0,0,0,0,0,0,0,0,0,0,0,0,0,0,0,0,0,0,0,0,0,0,0,0,0,0,0],"sum_hessian":[1.8831855E4,1.8705127E4,1.2672814E2,9.044821E3,9.660305E3,9.114842E1,3.5579723E1,5.616475E1,8.988657E3,9.513109E3,1.4719579E2,1.1591097E1,7.955733E1,2.7422693E1,8.157029E0,4.3250927E1,1.2913822E1,2.1026294E2,8.778394E3,8.813067E3,7.0004144E2,2.9038778E1,1.1815701E2,2.909224E0,8.681872E0,2.6845846E0,7.687274E1,1.2164484E1,1.5258209E1,4.158161E0,3.998868E0,4.0930332E1,2.320597E0,1.1707128E1,1.2066948E0,1.3051662E2,7.9746315E1,5.151223E3,3.627171E3,8.78966E3,2.3408136E1,2.5511923E2,4.4492218E2,1.99975E1,9.04128E0,3.4945293E1,8.3211716E1,1.4626617E0,1.4465624E0,7.469132E0,1.2127407E0,1.2227149E0,1.4618697E0,2.26698E1,5.420294E1,6.0295577E0,6.134926E0,1.0199432E1,5.058778E0,1.3325281E0,2.8256333E0,2.4216833E0,1.5771847E0,3.8965874E1,1.9644555E0,1.1143925E0,1.2062044E0,1.976275E0,9.730853E0,1.06224815E2,2.4291805E1,7.837819E1,1.3681298E0,4.7565566E3,3.9466647E2,3.431184E3,1.9598682E2,7.8440566E3,9.456031E2,1.9485357E1,3.9227793E0,8.0190216E1,1.7492902E2,2.8336578E2,1.615564E2,1.3655748E1,6.3417506E0,7.6501737E0,1.3911057E0,2.6210419E1,8.734875E0,6.214406E0,7.6997314E1,3.108028E0,4.361104E0,1.4273169E1,8.396632E0,7.657713E0,4.6545227E1,2.3969533E0,3.6326046E0,3.3948514E0,2.7400744E0,8.800901E0,1.39853E0,1.6634582E0,3.3953195E0],"tree_param":{"num_deleted":"0","num_feature":"26","num_nodes":"107","size_leaf_vector":"0"}},{"base_weights":[-3.9766054E-3,-3.9136656E-2,4.522166E-2,4.9777144E-1,-4.411949E-2,5.4290853E-2,-2.1716902E-1,2.1779881E-1,7.432358E-1,-1.2711968E-1,-1.3051704E-2,4.5782536E-1,4.8728526E-2,-5.673708E-1,1.3480076E-2,3.2020512E-1,-7.4166054E-1,-8.7537575E-1,8.3435553E-1,-1.3392211E-1,1.0417922E0,-6.510556E-3,-5.122944E-1,5.573525E-1,2.608825E-1,5.726857E-2,-1.8603371E-1,-1.0355161E0,-3.9323097E-1,4.3846422E-1,-2.0758617E-1,4.0628862E-1,-6.9716513E-1,-1.0412235E0,8.675277E-2,9.421422E-1,-4.223195E-1,-1.7844592E-1,3.740736E-2,4.3947488E-1,1.4462047E0,-1.4528897E-2,3.741729E-1,-6.420555E-1,-2.0894216E-1,8.731881E-1,4.2792767E-1,-9.811956E-1,3.787967E-1,8.922524E-2,-4.591104E-3,-2.8819805E-1,1.1497339E-1,-1.1207289E0,4.9300072E-1,-2.666843E-1,-1.0172412E0,5.9761983E-1,-9.835689E-1,-3.2943276E-1,6.272171E-1,-1.5661992E-1,4.799162E-1,-2.7414367E-1,-8.9898974E-1,1.0334326E0,2.1245833E-1,4.6670437E-1,-8.4663075E-1,-1.9491778E-1,2.645497E-1,1.506502E-1,-2.2296731E-1,8.356801E-1,-1.5634736E-1,1.6191813E0,2.9165593E-1,-3.2774474E-2,1.6330528E-1,-4.0261686E-2,5.6033784E-1,-3.6084926E-1,-8.140233E-1,-3.609008E-1,4.3802354E-1,6.317466E-2,1.0198507E0,-9.8348546E-1,4.8177838E-1,6.2230542E-2,5.990058E-1,7.915688E-2,7.9586136E-1,-3.4881952E-1,4.7865532E-2,-4.981561E-1,-2.1861266E-2,8.2559323E-1,2.3046196E-2,-6.749395E-1,-1.2452022E0,-5.48998E-1,1.1664041E-2,-1.097021E0,-8.126949E-2,-2.8391394E-1,6.72628E-1,-3.068395E-1,-1.098679E0,-1.5699299E-1,-5.521664E-1,7.2655493E-1,-2.679421E-1],"categories":[],"categories_nodes":[],"categories_segments":[],"categories_sizes":[],"default_left":[1,1,1,1,1,1,1,1,1,1,1,1,1,1,1,1,1,0,1,1,1,1,1,1,1,1,1,1,1,1,1,1,1,0,0,1,1,1,1,1,1,1,1,1,1,1,1,0,1,1,1,1,1,1,0,1,1,1,1,1,1,0,0,0,0,0,0,0,0,0,0,0,0,0,0,0,0,0,0,0,0,0,0,0,0,0,0,0,0,0,0,0,0,0,0,0,0,0,0,0,0,0,0,0,0,0,0,0,0,0,0,0,0],"id":9,"left_children":[1,3,5,7,9,11,13,15,17,19,21,23,25,27,29,31,33,-1,35,37,39,41,43,45,47,49,51,53,55,57,59,61,63,-1,-1,65,67,69,71,73,75,77,79,81,83,85,87,-1,89,91,93,95,97,99,-1,101,103,105,107,109,111,-1,-1,-1,-1,-1,-1,-1,-1,-1,-1,-1,-1,-1,-1,-1,-1,-1,-1,-1,-1,-1,-1,-1,-1,-1,-1,-1,-1,-1,-1,-1,-1,-1,-1,-1,-1,-1,-1,-1,-1,-1,-1,-1,-1,-1,-1,-1,-1,-1,-1,-1,-1],"loss_changes":[3.2453476E1,2.9294321E1,1.8619911E1,6.758047E0,2.7955666E1,1.694494E1,2.1125557E1,4.9983416E0,8.58235E0,2.361866E1,2.576276E1,1.8668499E0,1.4962076E1,8.058128E0,1.4991921E1,4.1787353E0,1.3248053E0,0E0,7.2941856E0,2.2407875E1,3.5536633E0,2.378121E1,3.8819866E0,2.3780231E0,5.694515E0,1.422669E1,8.090155E0,4.139763E0,5.832716E0,1.2943541E1,1.0888246E1,1.801024E0,8.12372E-2,0E0,0E0,2.9246101E0,2.172748E0,1.7061203E1,1.7918318E1,2.1006994E0,1.4955044E0,2.4760263E1,1.2422197E1,3.1386223E0,3.3089774E0,2.1459293E0,4.2520914E0,0E0,2.326898E0,3.3697598E1,4.4298046E1,1.0943335E1,4.364668E0,6.240654E-1,0E0,5.163013E0,8.5749626E-1,3.4785652E0,1.2038231E-1,3.4581022E0,1.41466E0,0E0,0E0,0E0,0E0,0E0,0E0,0E0,0E0,0E0,0E0,0E0,0E0,0E0,0E0,0E0,0E0,0E0,0E0,0E0,0E0,0E0,0E0,0E0,0E0,0E0,0E0,0E0,0E0,0E0,0E0,0E0,0E0,0E0,0E0,0E0,0E0,0E0,0E0,0E0,0E0,0E0,0E0,0E0,0E0,0E0,0E0,0E0,0E0,0E0,0E0,0E0,0E0],"parents":[2147483647,0,0,1,1,2,2,3,3,4,4,5,5,6,6,7,7,8,8,9,9,10,10,11,11,12,12,13,13,14,14,15,15,16,16,18,18,19,19,20,20,21,21,22,22,23,23,24,24,25,25,26,26,27,27,28,28,29,29,30,30,31,31,32,32,35,35,36,36,37,37,38,38,39,39,40,40,41,41,42,42,43,43,44,44,45,45,46,46,48,48,49,49,50,50,51,51,52,52,53,53,55,55,56,56,57,57,58,58,59,59,60,60],"right_children":[2,4,6,8,10,12,14,16,18,20,22,24,26,28,30,32,34,-1,36,38,40,42,44,46,48,50,52,54,56,58,60,62,64,-1,-1,66,68,70,72,74,76,78,80,82,84,86,88,-1,90,92,94,96,98,100,-1,102,104,106,108,110,112,-1,-1,-1,-1,-1,-1,-1,-1,-1,-1,-1,-1,-1,-1,-1,-1,-1,-1,-1,-1,-1,-1,-1,-1,-1,-1,-1,-1,-1,-1,-1,-1,-1,-1,-1,-1,-1,-1,-1,-1,-1,-1,-1,-1,-1,-1,-1,-1,-1,-1,-1,-1],"split_conditions":[2.0412743E-1,6.75E1,2.2508617E-1,7.04385E4,9.65E1,2.322511E-1,3.4533802E-1,5.5E1,5.7E1,7.954701E-1,6.891843E-1,1.12E2,7.173848E-1,1.3425E3,3.6270976E-1,6.0645E4,6.310669E-1,-2.6261273E-1,1.78833E5,4.9850747E-1,2.9E2,5.8429956E-1,2.5775912E-1,1.92E2,1.2798512E-1,4.245E2,1.33E2,6.075E2,6.96495E4,1.26E2,1.24E2,1.8E1,4.15E2,-3.1236708E-1,2.6025834E-2,5.855E2,1.01E2,7.771249E-1,5.217192E-1,1.805E2,4.224E3,3.527858E-1,1.9326843E-1,8.605E2,1.065E2,2.05E1,2.19E2,-2.943587E-1,2.575E2,4.155E2,4.495E2,5.464E3,1.395E2,1.475E2,1.4790022E-1,3.565E2,1.348525E5,1E2,2.265E2,3.85E2,2.01505E4,-4.698598E-2,1.4397486E-1,-8.22431E-2,-2.6969692E-1,3.100298E-1,6.3737504E-2,1.4001131E-1,-2.5398925E-1,-5.8475338E-2,7.936491E-2,4.519506E-2,-6.6890195E-2,2.5070405E-1,-4.690421E-2,4.857544E-1,8.749678E-2,-9.832343E-3,4.8991587E-2,-1.2078506E-2,1.6810136E-1,-1.0825478E-1,-2.4420701E-1,-1.0827024E-1,1.3140707E-1,1.8952398E-2,3.0595523E-1,-2.9504564E-1,1.4453351E-1,1.8669164E-2,1.7970175E-1,2.3747066E-2,2.3875841E-1,-1.0464586E-1,1.435966E-2,-1.4944683E-1,-6.55838E-3,2.4767798E-1,6.913859E-3,-2.0248187E-1,-3.7356067E-1,-1.646994E-1,3.4992124E-3,-3.291063E-1,-2.4380848E-2,-8.517419E-2,2.0178841E-1,-9.205185E-2,-3.296037E-1,-4.70979E-2,-1.6564992E-1,2.1796648E-1,-8.038263E-2],"split_indices":[11,1,15,0,1,11,11,1,3,25,7,1,23,0,11,0,15,0,0,6,3,6,5,3,23,3,1,3,0,1,1,1,3,0,0,3,3,9,7,3,0,19,5,0,1,3,3,0,3,3,3,0,1,0,0,3,0,1,3,3,0,0,0,0,0,0,0,0,0,0,0,0,0,0,0,0,0,0,0,0,0,0,0,0,0,0,0,0,0,0,0,0,0,0,0,0,0,0,0,0,0,0,0,0,0,0,0,0,0,0,0,0,0],"split_type":[0,0,0,0,0,0,0,0,0,0,0,0,0,0,0,0,0,0,0,0,0,0,0,0,0,0,0,0,0,0,0,0,0,0,0,0,0,0,0,0,0,0,0,0,0,0,0,0,0,0,0,0,0,0,0,0,0,0,0,0,0,0,0,0,0,0,0,0,0,0,0,0,0,0,0,0,0,0,0,0,0,0,0,0,0,0,0,0,0,0,0,0,0,0,0,0,0,0,0,0,0,0,0,0,0,0,0,0,0,0,0,0,0],"sum_hessian":[1.8759232E4,1.0940613E4,7.818618E3,9.969251E1,1.0840921E4,7.558173E3,2.6044528E2,4.7454254E1,5.223826E1,2.9518132E3,7.889108E3,1.01659966E2,7.456513E3,1.0284007E2,1.576052E2,4.347978E1,3.9744773E0,2.325325E0,4.9912933E1,2.935615E3,1.6198267E1,7.78808E3,1.0102747E2,6.6316315E1,3.534365E1,7.1955146E3,2.6099823E2,2.654144E1,7.629864E1,5.359302E1,1.04012184E2,4.064159E1,2.8381882E0,2.7302876E0,1.2441897E0,4.6200542E1,3.7123911E0,2.3300562E3,6.055587E2,7.3452377E0,8.85303E0,7.6283657E3,1.5971452E2,6.997754E1,3.1049934E1,1.7605907E1,4.8710407E1,2.4295995E0,3.291405E1,4.7442144E3,2.4513005E3,1.948926E2,6.610563E1,2.5392624E1,1.1488159E0,6.462112E1,1.1677524E1,4.871997E1,4.873052E0,9.129263E1,1.2719551E1,4.5705953E0,3.6070995E1,1.6784685E0,1.1597198E0,4.069317E1,5.5073752E0,1.1671174E0,2.5452738E0,2.2470637E3,8.299238E1,4.223086E2,1.8325015E2,4.1698422E0,3.1753953E0,7.3494806E0,1.5035491E0,6.919272E3,7.0909357E2,4.9748867E1,1.0996565E2,2.7730404E1,4.2247135E1,2.5502172E1,5.5477605E0,2.9184036E0,1.4687503E1,1.1557343E0,4.7554676E1,1.402899E1,1.8885061E1,4.678663E3,6.555092E1,3.2340674E2,2.1278938E3,1.0849425E2,8.639835E1,6.657851E0,5.9447777E1,6.9443755E0,1.8448248E1,3.1599302E1,3.3021812E1,1.06017885E1,1.0757352E0,3.6020286E0,4.511794E1,1.2412702E0,3.6317818E0,5.2416656E1,3.8875973E1,1.1618565E1,1.1009868E0],"tree_param":{"num_deleted":"0","num_feature":"26","num_nodes":"113","size_leaf_vector":"0"}},{"base_weights":[-2.8874646E-3,8.099923E-3,-1.464432E-1,-1.1577244E-2,1.5832031E-1,-7.67924E-1,1.831398E-2,2.226747E-3,-6.862737E-1,4.8991457E-1,2.6293501E-2,-5.752031E-1,-9.4442403E-1,-5.9786856E-2,1.6310449E-1,-5.4082465E-3,5.788938E-1,-1.1306458E0,-3.7571687E-1,1.9873227E-1,6.7338836E-1,-1.8695876E-1,2.1819152E-1,-4.3738246E-1,-9.448443E-1,-2.7304718E-1,-9.722189E-1,7.028555E-2,-4.1218266E-1,3.431049E-1,1.1620975E-2,1.7684338E-3,-7.1061015E-1,1.0089107E0,1.2530804E-1,-1.2253302E0,-5.0570256E-1,2.3194943E-1,-1.2457927E0,7.962779E-1,-3.274569E-1,1.3109131E0,5.7032275E-1,1.19772935E-2,-6.27352E-1,8.449173E-1,1.391274E-1,-8.2567275E-1,-3.2624984E-1,-9.8228407E-1,-2.0022611E-1,-6.7967796E-1,8.636421E-1,-9.916112E-1,-2.0209685E-1,-2.9990974E-1,1.8491833E-1,-8.0150026E-1,3.9893377E-1,2.7571705E-1,1.3243301E0,-9.440254E-2,3.7123084E-1,-2.0785802E-3,5.685338E-1,-8.300599E-1,3.517508E-1,1.0615772E0,-3.3509517E-1,2.7993274E-1,-7.7108145E-1,-1.271531E0,1.4731586E-1,-3.202095E-1,-1.0459235E0,3.8622233E-1,-5.6413805E-1,-1.4002714E0,1.4886124E-1,9.351418E-2,9.8259354E-1,-5.169283E-1,5.287742E-2,1.4286844E0,-4.0310988E-1,5.0505877E-1,1.5776258E0,1.056246E-1,-4.7642252E-1,1.264932E0,-7.203179E-1,1.4120505E0,7.068275E-1,6.31239E-2,6.495925E-1,-9.1557163E-1,-8.329928E-2,3.3310324E-2,-4.6426445E-1,-1.0988829E0,-5.655795E-1,-1.009212E0,-8.472968E-2,-1.0019101E0,-2.8623435E-1,2.8889862E-1,-8.112431E-1,-6.0621846E-1,-1.6050394E-1,2.1134831E-1,-9.097188E-1,-9.3101174E-1,-3.5453364E-2,9.356747E-1,-5.662478E-1,1.7743295E-1,7.230353E-1,1.4703677E0,4.4385904E-1,6.997099E-2,-3.9114937E-1,2.5730643E-1,1.0430137E0],"categories":[],"categories_nodes":[],"categories_segments":[],"categories_sizes":[],"default_left":[1,1,1,1,1,1,1,1,1,1,1,1,1,1,1,1,1,1,1,1,1,1,1,1,1,1,1,1,1,1,1,1,1,1,1,1,1,1,1,1,1,1,1,1,1,1,1,1,1,1,0,1,0,1,1,1,1,1,1,1,1,1,1,0,0,0,0,0,0,0,0,0,0,0,0,0,0,0,0,0,0,0,0,0,0,0,0,0,0,0,0,0,0,0,0,0,0,0,0,0,0,0,0,0,0,0,0,0,0,0,0,0,0,0,0,0,0,0,0,0,0,0,0],"id":10,"left_children":[1,3,5,7,9,11,13,15,17,19,21,23,25,27,29,31,33,35,37,39,41,43,45,47,49,51,53,55,57,59,61,63,65,67,69,71,73,75,77,79,81,83,85,87,89,91,93,95,97,99,-1,101,-1,103,105,107,109,111,113,115,117,119,121,-1,-1,-1,-1,-1,-1,-1,-1,-1,-1,-1,-1,-1,-1,-1,-1,-1,-1,-1,-1,-1,-1,-1,-1,-1,-1,-1,-1,-1,-1,-1,-1,-1,-1,-1,-1,-1,-1,-1,-1,-1,-1,-1,-1,-1,-1,-1,-1,-1,-1,-1,-1,-1,-1,-1,-1,-1,-1,-1,-1],"loss_changes":[2.94767E1,5.1315426E1,1.3605835E2,1.4296405E2,8.801094E1,8.928055E0,1.1897004E1,6.623634E1,4.204712E1,3.0452408E1,5.8933037E1,6.497963E0,2.417572E0,3.1362812E1,1.004687E1,7.514553E1,3.8215927E1,6.842407E0,9.68613E1,7.0288506E1,2.2302078E1,5.977232E1,3.7439625E1,4.075144E0,8.064537E-1,3.8716385E0,1.8556824E0,2.1280178E1,5.856286E1,1.0770807E1,7.705996E0,3.2050438E1,1.9273705E1,7.488556E0,1.363394E1,7.0878296E0,1.4983916E0,1.3529491E1,1.6424263E1,1.3601341E1,8.612811E0,1.0275238E1,1.9171745E1,2.1587267E1,3.82558E1,5.635948E0,2.6117302E1,1.3753176E0,3.981947E0,1.0306473E0,0E0,1.0503528E0,0E0,6.869354E-1,1.6214029E0,4.968664E0,1.1258896E1,1.2364159E1,3.1863953E1,6.855589E0,7.05183E-1,7.6454134E0,3.2532015E0,0E0,0E0,0E0,0E0,0E0,0E0,0E0,0E0,0E0,0E0,0E0,0E0,0E0,0E0,0E0,0E0,0E0,0E0,0E0,0E0,0E0,0E0,0E0,0E0,0E0,0E0,0E0,0E0,0E0,0E0,0E0,0E0,0E0,0E0,0E0,0E0,0E0,0E0,0E0,0E0,0E0,0E0,0E0,0E0,0E0,0E0,0E0,0E0,0E0,0E0,0E0,0E0,0E0,0E0,0E0,0E0,0E0,0E0,0E0,0E0],"parents":[2147483647,0,0,1,1,2,2,3,3,4,4,5,5,6,6,7,7,8,8,9,9,10,10,11,11,12,12,13,13,14,14,15,15,16,16,17,17,18,18,19,19,20,20,21,21,22,22,23,23,24,24,25,25,26,26,27,27,28,28,29,29,30,30,31,31,32,32,33,33,34,34,35,35,36,36,37,37,38,38,39,39,40,40,41,41,42,42,43,43,44,44,45,45,46,46,47,47,48,48,49,49,51,51,53,53,54,54,55,55,56,56,57,57,58,58,59,59,60,60,61,61,62,62],"right_children":[2,4,6,8,10,12,14,16,18,20,22,24,26,28,30,32,34,36,38,40,42,44,46,48,50,52,54,56,58,60,62,64,66,68,70,72,74,76,78,80,82,84,86,88,90,92,94,96,98,100,-1,102,-1,104,106,108,110,112,114,116,118,120,122,-1,-1,-1,-1,-1,-1,-1,-1,-1,-1,-1,-1,-1,-1,-1,-1,-1,-1,-1,-1,-1,-1,-1,-1,-1,-1,-1,-1,-1,-1,-1,-1,-1,-1,-1,-1,-1,-1,-1,-1,-1,-1,-1,-1,-1,-1,-1,-1,-1,-1,-1,-1,-1,-1,-1,-1,-1,-1,-1,-1],"split_conditions":[5.995E2,5.185E2,6.005E2,5.065E2,5.525E2,3.7465E3,4.8155E3,4.915E2,5.115E2,5.265E2,5.725E2,4.6990305E-1,7.05E1,6.085E2,2.78055E4,4.895E2,4.965E2,5.7677984E-1,5.175E2,5.245E2,5.285E2,7.8145E3,5.755E2,7.135E2,7.6999533E-1,4.1127694E-1,7.265504E-1,6.035E2,6.105E2,2.65185E4,1.01965E5,4.845E2,6.600131E-1,1.695E2,7.565E3,1.121565E5,3.47212E-1,2.739649E-1,5.9448814E-1,1.0795E3,3.382203E-1,1.58E2,6.33602E-1,5.675E2,5.575E2,9.65E1,5.975E2,4.857319E-1,1.2945E3,4.8634475E-1,-6.0067836E-2,4E1,2.5909263E-1,7.3293525E-1,1.205E2,5.465E2,4.4766748E-1,4.6525884E-1,3.5435E3,1.295E2,5.2948403E-1,2.7031922E-1,4.7091025E-1,-6.235741E-4,1.7056014E-1,-2.4901797E-1,1.0552524E-1,3.1847316E-1,-1.0052855E-1,8.397982E-2,-2.3132445E-1,-3.8145933E-1,4.4194758E-2,-9.6062854E-2,-3.1377706E-1,1.15866706E-1,-1.6924143E-1,-4.2008144E-1,4.4658374E-2,2.8054256E-2,2.9477808E-1,-1.550785E-1,1.5863227E-2,4.2860532E-1,-1.2093297E-1,1.5151763E-1,4.7328773E-1,3.1687383E-2,-1.4292677E-1,3.7947962E-1,-2.1609537E-1,4.2361516E-1,2.1204826E-1,1.893717E-2,1.9487776E-1,-2.746715E-1,-2.4989786E-2,9.993098E-3,-1.3927934E-1,-3.296649E-1,-1.6967385E-1,-3.027636E-1,-2.5418906E-2,-3.0057305E-1,-8.587031E-2,8.666959E-2,-2.4337295E-1,-1.8186554E-1,-4.8151184E-2,6.340449E-2,-2.7291566E-1,-2.7930352E-1,-1.0636009E-2,2.8070244E-1,-1.6987436E-1,5.3229887E-2,2.1691059E-1,4.411103E-1,1.3315772E-1,2.0991297E-2,-1.1734482E-1,7.7191934E-2,3.1290412E-1],"split_indices":[3,3,3,3,3,0,0,3,3,3,3,8,1,3,0,3,3,8,3,3,3,0,3,0,9,5,19,3,3,0,0,3,11,1,0,0,11,15,7,0,8,1,15,3,3,1,3,13,0,11,0,1,0,24,1,0,6,9,0,1,11,4,11,0,0,0,0,0,0,0,0,0,0,0,0,0,0,0,0,0,0,0,0,0,0,0,0,0,0,0,0,0,0,0,0,0,0,0,0,0,0,0,0,0,0,0,0,0,0,0,0,0,0,0,0,0,0,0,0,0,0,0,0],"split_type":[0,0,0,0,0,0,0,0,0,0,0,0,0,0,0,0,0,0,0,0,0,0,0,0,0,0,0,0,0,0,0,0,0,0,0,0,0,0,0,0,0,0,0,0,0,0,0,0,0,0,0,0,0,0,0,0,0,0,0,0,0,0,0,0,0,0,0,0,0,0,0,0,0,0,0,0,0,0,0,0,0,0,0,0,0,0,0,0,0,0,0,0,0,0,0,0,0,0,0,0,0,0,0,0,0,0,0,0,0,0,0,0,0,0,0,0,0,0,0,0,0,0,0],"sum_hessian":[1.8686293E4,1.735865E4,1.327643E3,1.5349025E4,2.0096252E3,2.7744214E2,1.0502008E3,1.5042264E4,3.0676138E2,5.7151526E2,1.43811E3,1.346626E2,1.4277953E2,6.825932E2,3.6760764E2,1.4846687E4,1.9557751E2,1.2510682E2,1.8165456E2,2.2171901E2,3.4979626E2,6.8116797E2,7.56942E2,9.968014E1,3.4982468E1,6.1063356E0,1.366732E2,4.9915225E2,1.8344095E2,1.6741348E2,2.0019417E2,1.46981045E4,1.4858179E2,9.9768654E1,9.580885E1,1.0781167E2,1.729515E1,1.0738772E2,7.426683E1,1.0357964E2,1.18139366E2,4.70491E1,3.0274716E2,4.6988336E2,2.1128462E2,8.370918E1,6.7323285E2,2.07503E1,7.892984E1,3.300384E1,1.978626E0,4.793573E0,1.3127626E0,1.3303564E2,3.6375506E0,1.1763744E2,3.815148E2,1.2395649E2,5.9484467E1,1.5785353E2,9.559953E0,1.5518004E2,4.501413E1,1.4600001E4,9.81036E1,1.3376068E2,1.48211155E1,9.620873E1,3.5599217E0,8.230003E1,1.3508817E1,1.0437236E2,3.4393091E0,1.4060129E1,3.2350216E0,9.038664E1,1.7001078E1,6.685735E1,7.409478E0,2.2020914E1,8.155873E1,7.861602E1,3.9523346E1,4.4179947E1,2.869151E0,2.857355E2,1.7011656E1,3.9494006E2,7.4943306E1,9.3037615E0,2.0198087E2,1.4584638E1,6.912454E1,5.8696313E2,8.62697E1,1.8300827E1,2.449472E0,2.2103561E1,5.682628E1,2.4508886E1,8.494955E0,2.6367884E0,2.1567848E0,1.3070685E2,2.3287995E0,2.305201E0,1.3323494E0,3.5746044E1,8.1891396E1,3.733082E2,8.206592E0,1.05846275E2,1.8110218E1,3.824619E1,2.1238274E1,1.3056306E2,2.729046E1,7.625231E0,1.934722E0,1.0035549E2,5.4824547E1,3.966975E1,5.3443813E0],"tree_param":{"num_deleted":"0","num_feature":"26","num_nodes":"123","size_leaf_vector":"0"}},{"base_weights":[-2.4505362E-3,8.3922184E-1,-4.3147723E-3,4.9850348E-1,1.1053623E0,-1.7716907E-1,3.619016E-3,6.730609E-1,-4.1120324E-1,1.1938529E0,1.1968098E-3,-7.365996E-2,-8.7130725E-1,2.3813236E-1,-1.1454923E-2,8.330949E-1,-6.8155146E-1,-7.404362E-1,1.1160589E-1,1.2391074E0,1.8851747E-1,-1.3387989E-1,6.735203E-1,-1.0206351E0,-3.1214663E-1,1.2896806E-1,4.5861104E-1,-9.2087126E-1,2.0959848E-3,9.016384E-1,-5.321956E-2,1.2788379E0,3.800558E-1,4.1259706E-2,-3.6982217E-1,8.225897E-1,-2.8523445E-1,-8.791395E-1,-1.5676928E0,-6.558333E-1,5.572204E-1,3.7733832E-1,-2.1403942E-1,8.304071E-1,2.4923083E-1,-1.2817974E0,-6.1839753E-1,1.8835759E-1,-1.7218748E-2,9.6082574E-1,2.6331475E-1,-1.0806958E-1,1.9810194E-1,-9.1723996E-1,-1.661028E-2,9.166006E-1,-7.954085E-1,-7.669143E-1,4.1110227E-1,-9.565858E-1,-1.0925436E-1,-1.719349E0,-6.704469E-1,-7.821059E-1,2.6568228E-1,-7.640639E-2,9.867788E-1,2.1521336E-1,7.928935E-1,-1.1910715E0,2.3619448E-1,2.0918664E-2,9.519974E-1,-2.6608033E-2,7.749138E-1,-1.011956E0,-1.7203559E0,-7.7692866E-1,-6.328452E-2,9.9219166E-2,6.646884E-1,-1.1508458E0,-1.02218455E-2],"categories":[],"categories_nodes":[],"categories_segments":[],"categories_sizes":[],"default_left":[1,1,1,1,1,1,1,1,1,1,0,1,1,1,1,1,0,0,0,1,0,1,1,1,1,1,1,1,1,1,0,0,0,1,1,1,1,1,1,1,1,1,1,1,1,1,1,1,1,0,0,0,0,0,0,0,0,0,0,0,0,0,0,0,0,0,0,0,0,0,0,0,0,0,0,0,0,0,0,0,0,0,0],"id":11,"left_children":[1,3,5,7,9,11,13,15,17,19,-1,21,23,25,27,29,-1,-1,-1,31,-1,33,35,37,39,41,43,45,47,49,-1,-1,-1,51,53,55,57,59,61,63,65,67,69,71,73,75,77,79,81,-1,-1,-1,-1,-1,-1,-1,-1,-1,-1,-1,-1,-1,-1,-1,-1,-1,-1,-1,-1,-1,-1,-1,-1,-1,-1,-1,-1,-1,-1,-1,-1,-1,-1],"loss_changes":[2.918898E1,3.1769924E0,2.545395E1,3.4290943E0,2.173645E0,5.84592E1,6.273805E1,4.260663E0,7.395846E-1,7.0399666E-1,0E0,3.2033077E1,8.499428E0,2.5738976E1,2.055053E2,1.0008583E0,0E0,0E0,0E0,1.8091774E-1,0E0,2.7197575E1,7.8258934E0,5.03936E0,7.446569E0,6.1274734E1,2.7394936E1,2.5936157E1,5.911892E1,2.9915333E-1,0E0,0E0,0E0,8.885117E0,5.4192608E1,7.7603836E0,2.961582E0,3.9587517E0,9.918442E-1,2.2376294E0,2.0501235E0,2.7922462E1,1.3326695E2,1.2510796E1,3.3118637E1,1.13593445E1,1.184317E1,6.548869E1,1.1808652E2,0E0,0E0,0E0,0E0,0E0,0E0,0E0,0E0,0E0,0E0,0E0,0E0,0E0,0E0,0E0,0E0,0E0,0E0,0E0,0E0,0E0,0E0,0E0,0E0,0E0,0E0,0E0,0E0,0E0,0E0,0E0,0E0,0E0,0E0],"parents":[2147483647,0,0,1,1,2,2,3,3,4,4,5,5,6,6,7,7,8,8,9,9,11,11,12,12,13,13,14,14,15,15,19,19,21,21,22,22,23,23,24,24,25,25,26,26,27,27,28,28,29,29,33,33,34,34,35,35,36,36,37,37,38,38,39,39,40,40,41,41,42,42,43,43,44,44,45,45,46,46,47,47,48,48],"right_children":[2,4,6,8,10,12,14,16,18,20,-1,22,24,26,28,30,-1,-1,-1,32,-1,34,36,38,40,42,44,46,48,50,-1,-1,-1,52,54,56,58,60,62,64,66,68,70,72,74,76,78,80,82,-1,-1,-1,-1,-1,-1,-1,-1,-1,-1,-1,-1,-1,-1,-1,-1,-1,-1,-1,-1,-1,-1,-1,-1,-1,-1,-1,-1,-1,-1,-1,-1,-1,-1],"split_conditions":[2.5E0,1.7265E3,2.95E1,1.7913419E-1,4.7420287E-1,2.85E1,6.85E1,3.2352495E-1,3.729344E-1,8.0418897E-1,3.5904296E-4,2.45E1,3.230486E-1,5.85E1,6.95E1,5.9599257E-1,-2.0446545E-1,-2.2213086E-1,3.348177E-2,8.5978305E-1,5.655524E-2,1.95E1,4.7608835E-1,1.405E2,4.4276345E-1,4.75E1,6.35E1,3.77E3,1.305E2,6.72434E-1,-1.596587E-2,3.836514E-1,1.1401674E-1,1.15E1,2.05E1,5.662524E-1,1.065E2,5.384692E-1,1.8347393E-1,4.4778928E-1,1.155E2,4.35E1,5.15E1,9.85E1,6.55E1,2.688962E-1,3.1312087E-1,1.195E2,1.345E2,2.8824773E-1,7.899443E-2,-3.2420874E-2,5.9430584E-2,-2.75172E-1,-4.9830843E-3,2.749802E-1,-2.3862256E-1,-2.300743E-1,1.2333068E-1,-2.8697577E-1,-3.277631E-2,-5.158047E-1,-2.0113407E-1,-2.3463179E-1,7.970469E-2,-2.2921918E-2,2.9603365E-1,6.456401E-2,2.3786807E-1,-3.5732147E-1,7.0858344E-2,6.2755994E-3,2.8559923E-1,-7.9824105E-3,2.3247415E-1,-3.035868E-1,-5.161068E-1,-2.3307861E-1,-1.8985355E-2,2.9765751E-2,1.9940653E-1,-3.4525374E-1,-3.0665537E-3],"split_indices":[3,0,3,13,19,3,3,15,5,9,0,3,13,3,3,4,0,0,0,8,0,3,8,1,5,3,3,0,3,8,0,0,0,3,3,23,1,24,5,23,1,3,3,1,3,11,5,3,3,0,0,0,0,0,0,0,0,0,0,0,0,0,0,0,0,0,0,0,0,0,0,0,0,0,0,0,0,0,0,0,0,0,0],"split_type":[0,0,0,0,0,0,0,0,0,0,0,0,0,0,0,0,0,0,0,0,0,0,0,0,0,0,0,0,0,0,0,0,0,0,0,0,0,0,0,0,0,0,0,0,0,0,0,0,0,0,0,0,0,0,0,0,0,0,0,0,0,0,0,0,0,0,0,0,0,0,0,0,0,0,0,0,0,0,0,0,0,0,0],"sum_hessian":[1.8599348E4,4.0112328E1,1.8559234E4,1.8851433E1,2.1260897E1,8.13526E2,1.7745709E4,1.6034765E1,2.816667E0,1.9608217E1,1.652679E0,7.089189E2,1.0460708E2,1.0708666E3,1.6674842E4,1.4684885E1,1.3498801E0,1.4728758E0,1.3437914E0,1.8541073E1,1.0671448E0,6.568038E2,5.2115105E1,8.190772E1,2.2699352E1,7.172994E2,3.5356723E2,2.4383524E2,1.6431008E4,1.3614697E1,1.0701876E0,1.7254406E1,1.2866662E0,3.7744907E2,2.7935474E2,4.5225384E1,6.8897204E0,6.714722E1,1.4760507E1,1.6444122E1,6.2552304E0,4.1598575E2,3.013136E2,1.26311E2,2.2725623E2,1.0969918E2,1.3413606E2,1.5429376E3,1.4888069E4,1.1997061E1,1.617637E0,1.9351482E2,1.8393423E2,1.0893199E2,1.7042274E2,4.3151634E1,2.073751E0,4.0126667E0,2.8770537E0,6.07896E1,6.357618E0,1.1842574E1,2.917933E0,1.4595433E1,1.8486879E0,2.859463E0,3.3957675E0,3.0033194E2,1.156538E2,9.4530914E1,2.0678268E2,1.6648115E1,1.0966288E2,1.4967003E2,7.75862E1,6.996051E1,3.9738674E1,1.0402784E2,3.0108221E1,1.3007325E3,2.42205E2,9.032471E1,1.4797745E4],"tree_param":{"num_deleted":"0","num_feature":"26","num_nodes":"83","size_leaf_vector":"0"}},{"base_weights":[-1.8158462E-3,2.0041667E-2,-5.3318016E-2,4.989737E-2,-5.056371E-2,-4.5244694E-1,-4.333834E-2,6.8224385E-2,-1.2632543E-1,5.5650948E-3,-1.2399284E-1,-5.852815E-1,1.2464798E-1,-9.079567E-2,4.3010693E-2,9.753096E-2,-1.2192334E-2,-1.9056377E-1,3.234965E-1,-3.187085E-2,1.9953866E-1,-3.112031E-1,-7.302674E-2,-4.9556726E-1,-1.2860435E0,2.892471E-1,-1.0508944E0,-6.2815495E-2,-3.0962333E-1,6.763111E-2,-3.6704484E-1,7.9279885E-2,6.0128176E-1,-4.078075E-1,4.1780766E-2,-2.3397951E-1,3.2768744E-1,-5.384916E-3,6.330034E-1,-4.4387114E-1,-6.3702534E-3,1.0385898E0,1.4010137E-1,-2.8251168E-1,-1.1496229E0,7.2712946E-1,-1.0321586E-1,-1.2686919E0,-4.1326654E-1,4.414726E-1,-3.041714E-1,-2.086506E-1,-2.2684194E-2,1.5374626E-3,-5.238841E-1,4.172849E-2,3.4541264E-1,-2.6786995E-1,-8.9206463E-1,9.4218485E-2,-5.877522E-1,1.4393669E0,5.131482E-1,-3.8095102E-1,-1.5276521E0,8.093639E-1,1.4642836E-2,-2.701838E-1,4.4429928E-1,5.0826806E-1,-7.279339E-1,6.083264E-1,-1.6735418E-1,7.318344E-1,-3.1814164E-1,-2.9727995E-1,-8.247888E-1,8.38649E-2,-9.12099E-2,1.1612635E0,7.822541E-2,1.7753361E-1,-5.508817E-1,1.3150738E0,-2.9355505E-1,-5.2340853E-1,-1.2896271E0,-6.482269E-2,1.5232819E0,4.6960056E-1,-1.1899021E-1,-3.842115E-1,-1.3554456E0,4.809835E-2,-4.99514E-1,1.5803096E-1,1.2329417E0,-9.622549E-1,7.166431E-1,1.6432749E-1,-2.7570346E-1,-6.735618E-2,9.429903E-2,2.4101776E-1,-5.1160276E-1,-1.7049506E0,-4.5189455E-1,1.08754314E-1,-1.9401766E-1,4.852313E-1,-1.2679824E0,-3.0222353E-1,4.8583975E-1,-1.1497759E0,-1.79115E-1],"categories":[],"categories_nodes":[],"categories_segments":[],"categories_sizes":[],"default_left":[1,1,1,1,1,1,1,1,1,1,1,1,1,1,1,1,1,1,1,1,1,1,1,1,0,1,0,1,1,1,1,1,1,1,1,1,1,1,1,1,1,1,1,1,1,1,1,1,1,1,1,1,1,1,1,1,1,1,1,0,0,0,0,0,0,0,0,0,0,0,0,0,0,0,0,0,0,0,0,0,0,0,0,0,0,0,0,0,0,0,0,0,0,0,0,0,0,0,0,0,0,0,0,0,0,0,0,0,0,0,0,0,0,0,0],"id":12,"left_children":[1,3,5,7,9,11,13,15,17,19,21,23,25,27,29,31,33,35,37,39,41,43,45,47,-1,49,-1,51,53,55,57,59,61,63,65,67,69,71,73,75,77,79,81,83,85,87,89,91,93,95,97,99,101,103,105,107,109,111,113,-1,-1,-1,-1,-1,-1,-1,-1,-1,-1,-1,-1,-1,-1,-1,-1,-1,-1,-1,-1,-1,-1,-1,-1,-1,-1,-1,-1,-1,-1,-1,-1,-1,-1,-1,-1,-1,-1,-1,-1,-1,-1,-1,-1,-1,-1,-1,-1,-1,-1,-1,-1,-1,-1,-1,-1],"loss_changes":[2.0880697E1,2.7453259E1,2.1993984E1,2.9568764E1,1.5953168E1,1.0399521E1,2.2103573E1,1.9541409E1,2.4986073E1,1.5943088E1,1.5977201E1,6.2580414E0,5.340562E0,2.129129E1,1.9342E1,5.582221E1,4.732222E1,1.7073439E1,1.1013001E1,1.933379E1,1.7567453E1,8.299671E0,3.1945887E1,5.76593E0,0E0,2.2676835E0,0E0,1.8063301E1,2.6290451E1,1.2979284E1,5.412179E0,5.8501957E1,1.4943657E1,7.419693E0,4.0615696E1,1.7250622E1,1.1580198E1,5.4128428E0,5.471506E0,5.744217E0,1.328404E1,2.6588612E0,8.706627E0,6.525488E0,3.364954E-1,3.0422228E1,1.1551972E1,1.7196465E-1,3.6383085E0,4.113158E0,4.326308E0,1.6703783E1,1.2664005E1,2.0006327E1,1.9085167E1,2.6139872E1,3.5330936E1,2.547524E0,2.8835526E0,0E0,0E0,0E0,0E0,0E0,0E0,0E0,0E0,0E0,0E0,0E0,0E0,0E0,0E0,0E0,0E0,0E0,0E0,0E0,0E0,0E0,0E0,0E0,0E0,0E0,0E0,0E0,0E0,0E0,0E0,0E0,0E0,0E0,0E0,0E0,0E0,0E0,0E0,0E0,0E0,0E0,0E0,0E0,0E0,0E0,0E0,0E0,0E0,0E0,0E0,0E0,0E0,0E0,0E0,0E0,0E0],"parents":[2147483647,0,0,1,1,2,2,3,3,4,4,5,5,6,6,7,7,8,8,9,9,10,10,11,11,12,12,13,13,14,14,15,15,16,16,17,17,18,18,19,19,20,20,21,21,22,22,23,23,25,25,27,27,28,28,29,29,30,30,31,31,32,32,33,33,34,34,35,35,36,36,37,37,38,38,39,39,40,40,41,41,42,42,43,43,44,44,45,45,46,46,47,47,48,48,49,49,50,50,51,51,52,52,53,53,54,54,55,55,56,56,57,57,58,58],"right_children":[2,4,6,8,10,12,14,16,18,20,22,24,26,28,30,32,34,36,38,40,42,44,46,48,-1,50,-1,52,54,56,58,60,62,64,66,68,70,72,74,76,78,80,82,84,86,88,90,92,94,96,98,100,102,104,106,108,110,112,114,-1,-1,-1,-1,-1,-1,-1,-1,-1,-1,-1,-1,-1,-1,-1,-1,-1,-1,-1,-1,-1,-1,-1,-1,-1,-1,-1,-1,-1,-1,-1,-1,-1,-1,-1,-1,-1,-1,-1,-1,-1,-1,-1,-1,-1,-1,-1,-1,-1,-1,-1,-1,-1,-1,-1,-1],"split_conditions":[3.0156618E-1,4.7089428E-1,3.1584784E-1,5.5247E-1,3.5555E3,4.4495994E-1,1.265E2,4.735E2,4.4441766E-1,2.787E3,4.81E3,7.0263815E-1,1.175E2,1.225E2,4.611634E-1,4.505E2,4.755E2,6.471931E-1,1.185E2,4.9986058E-1,2.7915E3,6.075E2,4.9735E3,3.0627906E-1,-3.858131E-1,5E2,-3.1526834E-1,9.85E1,1.5415E3,5.453174E-1,5.525E2,4.485E2,4.535E2,8.408961E-1,4.785E2,3.658179E-1,3.637E3,1.045E2,2.729E3,2.018E3,6.039402E-1,5.515E2,7.6999533E-1,4.7168884E-1,9.1E1,4.972E3,7.95E1,1.285E2,9.1E1,3.985E2,6.6011E4,8.55E1,4.505E2,5.640911E-1,1.574E3,4.2630208E-1,1.375E2,5.175E2,2.3224404E-1,2.8265547E-2,-1.7632568E-1,4.318101E-1,1.5394446E-1,-1.1428531E-1,-4.5829567E-1,2.4280918E-1,4.3928507E-3,-8.105514E-2,1.3328978E-1,1.5248042E-1,-2.1838017E-1,1.8249792E-1,-5.0206255E-2,2.1955033E-1,-9.5442496E-2,-8.9183986E-2,-2.4743666E-1,2.515947E-2,-2.7362972E-2,3.4837905E-1,2.3467625E-2,5.3260084E-2,-1.6526452E-1,3.9452216E-1,-8.806652E-2,-1.5702257E-1,-3.8688815E-1,-1.9446807E-2,4.569846E-1,1.4088017E-1,-3.5697065E-2,-1.15263455E-1,-4.066337E-1,1.4429506E-2,-1.4985421E-1,4.740929E-2,3.6988252E-1,-2.8867647E-1,2.1499294E-1,4.929825E-2,-8.271104E-2,-2.0206854E-2,2.8289711E-2,7.230533E-2,-1.5348083E-1,-5.114852E-1,-1.3556837E-1,3.2626297E-2,-5.8205303E-2,1.455694E-1,-3.8039473E-1,-9.066706E-2,1.4575194E-1,-3.4493276E-1,-5.37345E-2],"split_indices":[4,8,4,15,0,12,1,3,9,0,0,25,1,1,21,3,3,19,1,8,0,3,0,4,0,3,0,1,0,13,3,3,3,25,3,8,0,3,0,0,8,3,9,8,1,0,1,3,1,3,0,1,3,9,0,13,1,3,5,0,0,0,0,0,0,0,0,0,0,0,0,0,0,0,0,0,0,0,0,0,0,0,0,0,0,0,0,0,0,0,0,0,0,0,0,0,0,0,0,0,0,0,0,0,0,0,0,0,0,0,0,0,0,0,0],"split_type":[0,0,0,0,0,0,0,0,0,0,0,0,0,0,0,0,0,0,0,0,0,0,0,0,0,0,0,0,0,0,0,0,0,0,0,0,0,0,0,0,0,0,0,0,0,0,0,0,0,0,0,0,0,0,0,0,0,0,0,0,0,0,0,0,0,0,0,0,0,0,0,0,0,0,0,0,0,0,0,0,0,0,0,0,0,0,0,0,0,0,0,0,0,0,0,0,0,0,0,0,0,0,0,0,0,0,0,0,0,0,0,0,0,0,0],"sum_hessian":[1.8546977E4,1.3021335E4,5.5256416E3,9.151772E3,3.869562E3,1.3370932E2,5.3919326E3,8.290211E3,8.615619E2,2.1936628E3,1.6758992E3,1.08679504E2,2.5029821E1,3.4795334E3,1.912399E3,6.075779E3,2.2144321E3,7.5440314E2,1.0715874E2,1.8394866E3,3.5417618E2,3.575242E2,1.318375E3,9.7858475E1,1.08210335E1,2.2616947E1,2.4128728E0,3.0862058E3,3.9332755E2,1.804867E3,1.0753213E2,5.8644644E3,2.1131438E2,2.650557E2,1.9493763E3,6.965954E2,5.780774E1,5.2429676E1,5.4729057E1,1.0626181E2,1.7332247E3,2.2339872E1,3.318363E2,3.46987E2,1.0537213E1,4.7093224E1,1.2712817E3,8.0280905E0,8.983038E1,1.8203407E1,4.4135404E0,6.650929E2,2.421113E3,1.6079927E2,2.3252829E2,1.6519736E3,1.528933E2,9.171719E1,1.5814936E1,5.736843E3,1.2762143E2,1.8648567E1,1.926658E2,2.601567E2,4.8989854E0,6.558253E1,1.8837938E3,6.6186865E2,3.472672E1,4.980613E1,8.00161E0,1.0372361E1,4.2057316E1,4.9786453E1,4.942606E0,7.801803E1,2.8243786E1,8.3991046E2,8.933143E2,1.9623981E1,2.7158906E0,3.154886E2,1.6347717E1,1.5714465E0,3.4541553E2,2.7911959E0,7.746017E0,2.4069395E1,2.302383E1,3.3299576E1,1.2379822E3,1.2020094E0,6.8260813E0,1.4217705E1,7.561268E1,1.4286707E1,3.9167004E0,2.7184296E0,1.695111E0,1.0112722E2,5.639657E2,1.752367E3,6.6874603E2,1.0999527E2,5.0804E1,1.2055853E1,2.2047244E2,1.2866892E3,3.652845E2,1.4134354E2,1.1549746E1,8.829192E1,3.4252684E0,1.1166028E1,4.6489077E0],"tree_param":{"num_deleted":"0","num_feature":"26","num_nodes":"115","size_leaf_vector":"0"}},{"base_weights":[-1.5211189E-3,-1.2052182E-2,9.114568E-2,-6.0746E-4,-1.1245502E-1,7.8320134E-1,8.3666995E-2,-4.075825E-3,3.2231477E-1,-1.7790473E-1,5.696895E-2,1.019273E0,-2.4330275E-1,-7.1113193E-1,9.921165E-2,-7.3464033E-3,3.2804677E-1,-6.248897E-1,3.7079263E-1,-1.537288E-1,-8.419794E-1,1.3063356E0,-2.1056207E-2,1.1100988E0,-1.1376033E-1,2.995371E-1,-7.827579E-1,-1.9448642E-1,-9.2707837E-1,1.607295E-1,9.019649E-3,4.054845E-2,-2.8439237E-2,4.3110546E-1,6.201085E-2,-6.019243E-4,-1.21008E0,5.1193345E-1,5.5216134E-2,-1.9042681E-1,1.7031354E-1,-1.0173765E-1,-1.1617155E0,9.3207055E-1,2.1716883E0,-3.2049832E-1,7.003894E-2,3.468255E-1,1.1819756E0,4.207761E-1,-4.6103942E-1,-1.0592917E0,-3.0586287E-1,1.8638816E-1,-1.1945856E-1,-1.5379609E-1,1.5975821E-1,-1.2385653E-2,4.8356628E-1,-6.3215894E-1,-1.3289729E-2,-1.5586202E-1,5.094975E-1,-7.309744E-2,5.567571E-1,-5.028251E-1,4.221164E-1,3.6813465E-1,8.88591E-1,-4.3344188E-1,3.271967E-1,2.1509556E-1,-2.3683657E-1,7.4767053E-1,2.1340657E-2,-6.118094E-1,1.0244299E0,-1.3051159E0,-3.9225715E-1,1.3968929E0,4.078121E-1,-1.6918512E-1,-1.2154298E0,1.1304005E0,3.8104385E-2,-5.740982E-1,1.1674609E0,5.1154476E-1,-6.76981E-1,-1.2092038E0,-9.728853E-2,3.970677E-1,-6.8119556E-1,-3.3906955E-1,1.9932981E-1,-2.3220386E-1,3.6705032E-1,-6.3430804E-1,-1.0312662E-1,-9.7985335E-2,2.506915E-1],"categories":[],"categories_nodes":[],"categories_segments":[],"categories_sizes":[],"default_left":[1,1,1,1,1,1,1,1,1,1,1,1,1,1,1,1,1,1,1,1,1,1,1,1,0,0,0,1,1,1,1,1,1,1,1,1,0,1,1,1,1,1,1,1,0,1,1,0,0,1,1,1,1,1,1,1,1,0,0,0,0,0,0,0,0,0,0,0,0,0,0,0,0,0,0,0,0,0,0,0,0,0,0,0,0,0,0,0,0,0,0,0,0,0,0,0,0,0,0,0,0],"id":13,"left_children":[1,3,5,7,9,11,13,15,17,19,21,23,25,27,29,31,33,35,37,39,41,43,45,47,-1,-1,-1,49,51,53,55,57,59,61,63,65,-1,67,69,71,73,75,77,79,-1,81,83,-1,-1,85,87,89,91,93,95,97,99,-1,-1,-1,-1,-1,-1,-1,-1,-1,-1,-1,-1,-1,-1,-1,-1,-1,-1,-1,-1,-1,-1,-1,-1,-1,-1,-1,-1,-1,-1,-1,-1,-1,-1,-1,-1,-1,-1,-1,-1,-1,-1,-1,-1],"loss_changes":[1.8011057E1,1.9043318E1,9.682372E0,1.6664751E1,1.8814243E1,5.0984E0,2.3104902E1,1.599262E1,7.4919376E0,1.951307E1,4.6166035E1,1.8207874E0,1.566813E0,3.823494E0,1.0149422E1,1.4728628E1,3.909608E0,2.9476612E0,6.6992016E0,1.4085188E1,1.0000767E1,6.991432E0,1.2201023E1,4.3147087E-1,0E0,0E0,0E0,2.1363811E0,1.7328491E0,7.841213E0,1.825773E1,1.0454174E2,9.2563866E1,4.833317E0,2.7984293E0,1.2536463E0,0E0,5.319006E0,6.4943767E0,2.0037651E1,1.0369352E1,8.664291E0,2.7719193E0,4.592684E0,0E0,1.3920878E1,1.1576588E1,0E0,0E0,3.7181435E0,2.1820745E0,2.801628E0,1.8008546E0,6.84568E0,5.1234264E0,8.642667E0,9.07746E0,0E0,0E0,0E0,0E0,0E0,0E0,0E0,0E0,0E0,0E0,0E0,0E0,0E0,0E0,0E0,0E0,0E0,0E0,0E0,0E0,0E0,0E0,0E0,0E0,0E0,0E0,0E0,0E0,0E0,0E0,0E0,0E0,0E0,0E0,0E0,0E0,0E0,0E0,0E0,0E0,0E0,0E0,0E0,0E0],"parents":[2147483647,0,0,1,1,2,2,3,3,4,4,5,5,6,6,7,7,8,8,9,9,10,10,11,11,12,12,13,13,14,14,15,15,16,16,17,17,18,18,19,19,20,20,21,21,22,22,23,23,27,27,28,28,29,29,30,30,31,31,32,32,33,33,34,34,35,35,37,37,38,38,39,39,40,40,41,41,42,42,43,43,45,45,46,46,49,49,50,50,51,51,52,52,53,53,54,54,55,55,56,56],"right_children":[2,4,6,8,10,12,14,16,18,20,22,24,26,28,30,32,34,36,38,40,42,44,46,48,-1,-1,-1,50,52,54,56,58,60,62,64,66,-1,68,70,72,74,76,78,80,-1,82,84,-1,-1,86,88,90,92,94,96,98,100,-1,-1,-1,-1,-1,-1,-1,-1,-1,-1,-1,-1,-1,-1,-1,-1,-1,-1,-1,-1,-1,-1,-1,-1,-1,-1,-1,-1,-1,-1,-1,-1,-1,-1,-1,-1,-1,-1,-1,-1,-1,-1,-1,-1],"split_conditions":[5.997101E-1,4.5001215E-1,8.25E1,9.444004E-1,4.505E2,2.2881968E-1,8.85E1,5.7222146E-1,5.2E1,4.485E2,4.615E2,5.965E2,4.705E2,4.5318967E-1,1.205E2,2.125E2,4.725E2,3.4E1,4.635E2,6.23365E4,3.6685E3,2.0599058E-1,4.92E2,7.2E1,-3.41281E-2,8.986113E-2,-2.3482737E-1,1.295E2,4.915E2,5.4282296E-1,1.385E2,1.835E2,2.205E2,4.1E1,6.02E2,1.76755E4,-3.6302403E-1,5.7285E4,9.05E1,5E1,4.7270682E-1,2.6285E3,6.116698E-1,4.535E2,6.5150654E-1,4.875E2,4.955E2,1.04047656E-1,3.5459268E-1,7.25E1,5.98E2,4.6238E4,5.585E2,8.9E1,7.295E3,6.520185E-1,1.685E2,-3.715696E-3,1.450699E-1,-1.8964769E-1,-3.986919E-3,-4.6758607E-2,1.5284926E-1,-2.1929232E-2,1.6702713E-1,-1.5084752E-1,1.2663493E-1,1.10440396E-1,2.665773E-1,-1.3003257E-1,9.815901E-2,6.4528674E-2,-7.105097E-2,2.2430117E-1,6.4021973E-3,-1.8354282E-1,3.07329E-1,-3.915348E-1,-1.1767715E-1,4.190679E-1,1.2234363E-1,-5.0755538E-2,-3.6462894E-1,3.3912018E-1,1.1431316E-2,-1.7222947E-1,3.502383E-1,1.5346344E-1,-2.030943E-1,-3.6276117E-1,-2.918656E-2,1.19120315E-1,-2.0435868E-1,-1.0172087E-1,5.9798945E-2,-6.966116E-2,1.101151E-1,-1.9029242E-1,-3.0937988E-2,-2.93956E-2,7.520746E-2],"split_indices":[9,4,1,10,3,11,1,14,3,3,3,3,3,8,1,3,3,3,3,0,0,8,3,3,0,0,0,3,3,4,1,3,3,3,3,0,0,0,1,3,4,0,8,3,0,3,3,0,0,3,0,0,3,0,0,9,3,0,0,0,0,0,0,0,0,0,0,0,0,0,0,0,0,0,0,0,0,0,0,0,0,0,0,0,0,0,0,0,0,0,0,0,0,0,0,0,0,0,0,0,0],"split_type":[0,0,0,0,0,0,0,0,0,0,0,0,0,0,0,0,0,0,0,0,0,0,0,0,0,0,0,0,0,0,0,0,0,0,0,0,0,0,0,0,0,0,0,0,0,0,0,0,0,0,0,0,0,0,0,0,0,0,0,0,0,0,0,0,0,0,0,0,0,0,0,0,0,0,0,0,0,0,0,0,0,0,0,0,0,0,0,0,0,0,0,0,0,0,0,0,0,0,0,0,0],"sum_hessian":[1.8454098E4,1.6571688E4,1.8824095E3,1.4876904E4,1.694783E3,1.9015833E1,1.8633937E3,1.4719793E4,1.5711143E2,1.2224801E3,4.7230295E2,1.546605E1,3.549782E0,3.4886707E1,1.828507E3,1.4577222E4,1.4257133E2,7.070545E0,1.500409E2,1.1807267E3,4.1753376E1,2.6836992E1,4.4546594E2,1.4337012E1,1.1290374E0,1.9910156E0,1.5587665E0,1.0843816E1,2.404289E1,1.0865884E3,7.419186E2,4.4566714E3,1.0120551E4,1.023153E2,4.0256035E1,3.9053268E0,3.1652184E0,1.0324335E2,4.6797554E1,1.060982E3,1.19744606E2,1.2992287E1,2.8761087E1,2.0184359E1,6.652633E0,1.0332018E2,3.4214575E2,1.7352561E0,1.2601757E1,3.102949E0,7.740867E0,1.9242348E1,4.8005433E0,9.95737E2,9.085143E1,3.566613E2,3.852573E2,3.9818687E3,4.748026E2,2.4674736E2,9.873803E3,1.1938264E1,9.037704E1,3.2290268E1,7.965769E0,1.6982116E0,2.2071152E0,7.6148895E1,2.7094448E1,1.652107E1,3.0276484E1,1.0858097E2,9.5240106E2,2.3735775E1,9.6008835E1,9.2565E0,3.735786E0,2.3656235E1,5.1048536E0,9.816373E0,1.0367986E1,8.939458E1,1.3925608E1,8.997382E0,3.3314838E2,1.4294727E0,1.6734761E0,1.157713E0,6.583154E0,1.642571E1,2.8166363E0,1.6508639E0,3.1496794E0,2.3329042E1,9.7240796E2,7.418277E1,1.6668663E1,3.2923214E1,3.2373807E2,